svm_type c_svc
kernel_type rbf
gamma 0.0001
nr_class 305
total_sv 500
rho -0.99999678730964658 -0.99999036490917204 0.99989401102066044 -0.99996787905693063 -0.99991008341312404 -0.99988440871238704 -0.99985553026199336 0.99954111278057101 -0.99970806539058688 -0.99966322779655459 0.99897140860557565 -5.1105022430386615e-05 -3.1873583793640137e-05 -6.6846609115600586e-05 -7.3096156120278089e-05 -0.99896127879619601 -0.99879291057586661 0.99704088568687443 -0.9985171616077424 -0.99821377396583566 -0.99810655117034908 0.99565295577049262 0.99467483162879944 -0.00026061534881594017 -0.99700642824172969 0 -0.9965865939855576 0 0.99150188267230988 -0.99550658762454991 0 0 -0.99465128183364859 -0.9944720357656478 0.98802693486213689 0.98687968850135799 -0.99314295947551723 -0.99294267892837529 -0.99273985028266909 -0.99253448843955994 -0.00010339319705959804 -0.99211625158786765 0 -0.99125025570392611 -0.99102772176265719 -0.0001118093729018943 -0.99057554900646205 -0.99011403620243077 -0.98987983465194707 -0.98964335918426505 -0.98940463364124298 0 0 -0.98817800283432011 -0.98792622983455658 -0.987672358751297 -0.9874164104461669 0 0 0.97060947120189667 -0.98583840727806094 -0.00040248632431028053 -0.98474779129028311 -0.98447052240371702 -0.98391061723232265 -0.98362802863121024 -0.98334371447563163 0.96468637287616732 -0.98248065710067745 -0.9821896791458129 -0.00014583766460418701 -0.98130721747875216 0 -0.00029810965061188854 0 -0.00015222430229189232 -0.97857983112335201 0 0.95372252762317655 0 0 -0.97478176057338717 0 -0.97380790710449217 0 0 -0.97216653525829311 0.94202845692634574 -0.97117183804512019 -0.00016464889049527809 -0.96983545720577236 -0.96949971914291377 0 0 -0.967812392115593 -0.96747336983680721 -0.9671338886022568 0 0.93120542168617249 -0.96474658846855166 0 0 0 0.9236643224954606 0 -0.96062744557857505 -0.96028366088867179 0.91885192990303044 -0.95890897214412685 -0.9585655242204667 -0.9582222074270248 -0.95787904262542722 -0.95753605067729941 0 0.91131699383258824 -0.9561662435531616 0 -0.95412025451660154 -0.95378052890300746 0.90553795397281633 -0.95276392400264731 0 -0.95141514837741847 -0.95107927322387686 0 0 0 0.89650112539529792 -0.94775441139936445 -0.947425688803196 -0.94709771424531941 -0.00047578960657118641 0 -0.94579362869262695 -0.94514648616313934 -0.94482419341802593 -0.94450277090072632 -0.9441822335124016 0.88646272420883188 -0.94322607517242441 -0.94259331673383717 -0.94227838218212123 -0.00045512169599531971 -0.94165146797895427 -0.94133951216936107 -0.94102857559919362 -0.00015123039484027379 -0.00015069544315338135 -0.93918501287698741 -0.00014849603176114723 -0.93857917189598083 -0.000291393697261777 0.87330276519060135 -0.9373810321092606 0 0.86980491578578945 -0.0002805948257446067 -0.00013890862464904785 -0.93390057086944578 -0.00013699084520341076 -0.93305841535329814 -0.93250340968370438 -0.93222785890102389 0.86256983876228333 -0.93140908926725396 -0.93113881349563599 0 -0.93007110804319382 -0.00025440156459805019 0 -0.00024889558553692348 -0.92851030975580207 -0.92825499176979065 -0.00024332553148265212 -0.92749737352132788 -0.92724762558937068 0.8525363951921463 -0.00011859536170960583 -0.92553877979516974 -0.92530031800270085 -0.9250632770359517 0 0 -0.92389945462346068 -0.92367097586393354 -0.00011004209518428176 -0.92321831285953526 0.84467142894864078 -0.92233017981052401 0 -0.00010359212756161362 -0.00010287612676629365 -0.92062270939350133 -0.92041571661829957 0 -0.91980330422520629 0 -0.9192037090659142 0.83743117600679395 -0.91842410638928418 -0.91823273748159406 0.83498170226812363 -0.91785422265529637 0.83370396494865417 -0.91711400523781772 -0.91657346040010457 -0.91639604642987249 0 0.83107014968991288 -0.91552957743406305 -0.91502604037523272 0 -0.91453462764620785 0.8279629267752171 -0.91421369761228566 0.82658408284187312 -0.91358770206570628 -0.91328255981206885 -0.91298260241746898 -0.91283455491065979 -0.91268778890371327 0 0.82408961765468125 -0.9118337862193584 0 0 0 -6.2000006437301636e-05 -0.91076447889208789 -0.91050922907888887 0.82004459351301195 -0.91025871373713019 -0.91001288369297972 -5.6743621826171875e-05 -0.90965281501412387 -0.90941847935318942 -0.90930300541222087 0 -0.90896328128874304 -0.90885225124657154 0.81716238334774971 0 -0.90810532011091705 -0.9080028615891933 0.81550598293542853 0 -0.90731443576514725 -0.90722011998295782 0.81398072503507135 0 -4.1129812598239557e-05 -0.90658717341721062 0.81257966477423893 -0.90616339333355422 -0.0001076236367225647 0 -0.90584070924669502 0.81101011000573631 -0.90553207732737062 -3.4466199576810297e-05 0.81026312950998547 0 -0.90488679111003878 -0.90481913574039941 0 0 0 -0.904367134347558 -0.90430556796491146 0 0 -0.90400858297944064 0 0 -0.90372909121215339 -4.6128407120704651e-05 -0.90362201575189838 -0.90356946494430312 0 0 -0.90326758790761241 0 -0.90312500959262254 -2.0314194262016638e-05 -0.90303294435143466 -0.90294321393594146 -0.90289920987561345 -0.90285577205941081 0 0.80530392695218334 -0.90264687966555357 0 -1.650657504798092e-05 0.8046982820145786 -0.90234006298705938 0.80434689223766331 -0.90223322752863166 -0.90216438099741936 -0.90209738817065954 -0.90206457423046227 0.80391618972644208 -3.4208595752704962e-05 -0.90190713042393322 -0.90184715380892155 0 0.99998714923858634 0 0 0 0 0.99985553026199336 0 0 0.99964083135128023 0.99956726729869838 0.99936113059520726 0.99926387667655936 0.99912048876285553 0 0 0.99879291057586661 0 0 0 0.99810655117034908 0.99764744043350229 0.99701691567897788 0 0.99700642824172969 0 0.99644085764884949 0.99614077806472778 0 0.99550658762454991 0.99517271518707273 0 0 0.9944720357656478 0.99391822814941411 0 0 0 0 0.99243233501911166 0 0.99190341532230375 0 0 0.99091708362102504 0 0 0 0 0 0.98940463364124298 0.98892051577568052 0 0 0 0 0.9874164104461669 0.98689837753772736 0.98624124526977541 0 0.98516883254051213 0 0 0 0 0 0.98334371447563163 0 0 0.98175203204154959 0 0.98100996911525729 0.9801142752170563 0.98010928332805636 0.97904414534568796 0 0.97826991975307465 0.97764627039432528 0.97638438940048222 0.97574655711650848 0 0.97478176057338717 0 0.97380790710449217 0.97315397560596462 0 0.97216653525829311 0 0.97100753784179683 0 0 0.96949971914291377 0.96882643997669216 0 0 0 0.9671338886022568 0.96645363569259646 0 0.96474658846855166 0.9640617042779922 0.9633759170770646 0.96268942058086393 0.96165872514247897 0 0 0.96028366088867179 0 0 0 0 0 0.95753605067729941 0.95668197274208078 0 0.95514173209667208 0 0 0.95378052890300746 0 0.9524259746074677 0 0 0.95107927322387686 0.95040923058986659 0.94974158853292456 0.9490764796733856 0 0 0 0.94662071913480761 0.94677050560712805 0 0 0 0 0 0.9441822335124016 0 0 0 0.94182174354791637 0 0 0 0.94056690782308583 0.94025857597589491 0 0.93903595954179764 0 0.93798538148403166 0.93768642395734791 0 0.93649459630250931 0.93576694279909134 0.93533705174922943 0.93432881832122805 0 0.93348094224929801 0 0 0 0.93222785890102389 0 0 0.93086987286806111 0 0.92981534153223033 0.92980755716562269 0.92877481132745743 0 0 0.92775633633136745 0 0 0.9269992783665657 0.92638749778270724 0 0 0 0.9250632770359517 0.92459346726536751 0 0 0.92356021851301184 0 0.92299412935972214 0 0.92211173102259636 0.92157482579350469 0.92136139348149304 0 0 0.92041571661829957 0 0.91980330422520629 0 0.9192037090659142 0 0 0.91814051717519762 0 0.91748913899064055 0 0 0 0.91639604642987249 0.91604534983634944 0 0 0.91502604037523272 0 0.9144568033516407 0 0.91382288560271263 0 0 0 0 0 0.91268778890371327 0.91239807680249219 0 0.9118337862193584 0.91155911907553677 0.91128937602043147 0.9109619125723839 0 0 0.91044900901615611 0 0 0.90983439534902577 0 0 0 0.90930300541222087 0 0 0.90885225124657154 0.90841901116073132 0 0 0.9080028615891933 0.90760337486863141 0 0 0.90722011998295782 0.90694306902587418 0.90672161318361755 0 0.90650056563317771 0 0.90605443716049194 0.90608138125389814 0 0.90576225072145466 0 0.90549719072878365 0.9053095640614629 0.90509452912956478 0 0 0.90481913574039941 0.90468617044389243 0.90455628912895913 0 0 0.90430556796491146 0.90418462380766873 0 0.90400858297944064 0.90389473140239718 0 0.90368230696767571 0 0 0.90351756364107128 0.90341568551957607 0 0.90326758790761241 0 0.90310440203174946 0 0 0 0 0.90285577205941081 0.90277057280763984 0 0.90260672112926832 0.90251121902838349 0.90247287908568974 0 0.90228869216516616 0 0 0 0 0.90205091098323464 0.90199735341593623 0 0 0.99999518096446993 0 0 0 0 0.99988440871238704 0 0 0.99968725740909581 0.99961845576763153 0.99942339658737178 0.99933086335659027 0.99919374883174894 0 0 0.99887864589691167 0 0 0 0.99821377396583566 0.99776672720909121 0.99715098738670349 0 0.99714053571224215 0 0.9965865939855576 0.99629224836826324 0 0.99566935300827031 0.99534103870391843 0 0 0.99465128183364859 0.99410549402236947 0 0 0 0 0.99263894557952881 0 0.99211625158786765 0 0 0.99114080071449284 0 0 0 0 0 0.98964335918426505 0.98916367888450618 0 0 0 0 0.987672358751297 0.98715840876102445 0.98650624155998234 0 0.9854414582252502 0 0 0 0 0 0.98362802863121024 0 0 0.98204539716243744 0 0.98130721747875216 0.98041594326496129 0.98041097819805145 0.97935073375701909 0 0.97857983112335201 0.97795872390270233 0.97670162022113804 0.97606602609157567 0 0.97510439753532419 0 0.974133488535881 0.97348139584064486 0 0.97249652147293086 0 0.97134022712707524 0 0 0.96983545720577236 0.96916337013244624 0 0 0 0.96747336983680721 0.9667939692735672 0 0.96508863568305969 0.96440427005290985 0.96371891200542459 0.96303274631500246 0.96200238466262822 0 0 0.96062744557857505 0 0 0 0 0 0.95787904262542722 0.9570244282484055 0 0.95548292398452761 0 0 0.95412025451660154 0 0.95276392400264731 0 0 0.95141514837741847 0.95074396133422856 0.95007510036230092 0.94940870851278303 0 0 0 0.94694750905036917 0.94709771424531941 0 0 0 0 0 0.94450277090072632 0 0 0 0.94213517755270004 0 0 0 0.94087629020214081 0.94056690782308583 0 0.9393399834632874 0 0.93828548341989515 0.93798538148403166 0 0.93678889572620394 0.93605824410915373 0.93562652319669715 0.93461396396160124 0 0.93376229852437975 0 0 0 0.93250340968370438 0 0 0.93113881349563599 0 0.93007888495922086 0.93007110804319382 0.92903288751840596 0 0 0.92800887376070018 0 0 0.92724762558937068 0.92663232684135433 0 0 0 0.92530031800270085 0.92482765913009646 0 0 0.92378798052668576 0 0.92321831285953526 0 0.92233017981052401 0.92178969159722324 0.92157482579350469 0 0 0.92062270939350133 0 0.92000601589679709 0 0.91940215229988098 0 0 0.91833118274807934 0 0.91767489314079287 0 0 0 0.91657346040010457 0.91622001081705085 0 0 0.91519253328442574 0 0.91461860239505777 0 0.91397938355803487 0 0 0 0 0 0.91283455491065979 0.91254229806363585 0 0.91197298094630241 0.91169583424925804 0.91142363473773003 0.9110931351780891 0 0 0.91057544872164731 0 0 0.90995499417185788 0 0 0 0.90941847935318942 0 0 0.90896328128874304 0.90852570235729213 0 0 0.90810532011091705 0.9077017080038785 0 0 0.90731443576514725 0.90703444331884375 0.90681058540940285 0 0.90658717341721062 0 0.90613601207733163 0.90616339333355422 0 0.90584070924669502 0 0.90557263102382424 0.90538289528340099 0.90516538769006727 0 0 0.90488679111003878 0.90475226435810319 0.90462084766477346 0 0 0.904367134347558 0.90424473322927956 0 0.90406655501574273 0.90395131055265665 0 0.90373618174344306 0 0 0.90356946494430312 0.90346630588173871 0 0.90331633258610966 0 0.90315102851018314 0 0 0 0 0.90289920987561345 0.90281289489939809 0 0.90264687966555357 0.90255007231608031 0.90251121902838349 0 0.90232454556971797 0 0 0 0 0.9020835018716753 0.90202906513586645 0 0 -1.0000032097101212 -0.99999678730964658 -0.99999036490917204 -0.9999807268381119 1.6048550605773926e-05 -0.99991008341312404 -0.99988440871238704 1.9213557243380475e-05 -0.99941621124744418 -0.9990785479545593 -0.99890439808368692 -0.99865536689758305 -0.99939143359661098 -0.99926059544086454 0.99657291173934937 -0.99904079735279083 -0.99879291057586661 -0.99870407879352574 0.99485644698143005 0.00010685622692108154 -0.99478871822357173 -0.99776672720909121 -0.99480650424957273 -0.99739991724491117 -0.99374550879001622 0.00013931393623356492 -0.99644085764884949 -0.9919797301292419 -0.99134553968906403 -0.99566935300827031 -0.99550658762454991 0.00016739368438722924 0.00017551183700564854 -0.99429010152816777 -0.99410549402236947 -0.99391822814941411 -0.99372832477092743 -0.98609143793582921 -0.99334067404270177 -0.98507609963417053 -0.99253448843955994 -0.99232661426067348 -0.98316451907157898 -0.99190341532230375 -0.99147039651870728 -0.99125025570392611 -0.99102772176265719 -0.99080281257629399 -0.98023541867732999 -0.9792941033840179 -0.98964335918426505 -0.98940463364124298 -0.98916367888450618 -0.98892051577568052 -0.97636352181434627 -0.97535227537155156 -0.00012489557266237572 -0.9874164104461669 -0.9719457000494004 -0.9863723158836365 -0.98610633015632632 -0.985568568110466 -0.98529683649539945 -0.98502323627471922 -0.00027295053005216285 -0.98419145643711081 -0.98391061723232265 -0.96525783240795138 -0.98305769860744474 -0.96380224823951721 -0.96202505230903634 -0.96202806830406196 -0.95992294847965243 -0.98041097819805145 -0.958399698138237 0.93450886905193342 -0.95467360019683833 -0.95341171920299528 -0.97670162022113804 -0.95150166749954224 -0.97574655711650848 -0.94957214891910557 -0.94827565848827367 -0.974133488535881 -0.00031951665878293678 -0.97315397560596462 -0.94401072263717656 -0.97183574438095088 -0.97150416970252995 -0.94101897776126864 -0.93967991769313808 -0.96983545720577236 -0.96949971914291377 -0.96916337013244624 -0.9363109797239304 0.90107374191284184 -0.9667939692735672 -0.93155293464660649 -0.93018661141395564 -0.92881792783737183 0.00033657252788543701 -0.92538833916187291 -0.96268942058086393 -0.96234595775604248 0.00033734440803528942 -0.96097123324871059 -0.96062744557857505 -0.96028366088867179 -0.95993990004062657 -0.95959618389606471 -0.91714081466197972 0.87126012146472931 -0.9582222074270248 -0.91234239935874939 -0.9561662435531616 -0.95582443475723267 0 -0.95480087697505955 -0.90689250826835632 -0.95344121754169464 -0.95310234427452079 -0.90418717861175535 -0.90284047722816463 -0.90149813890457153 0.00032708942890169457 -0.94974158853292456 -0.94940870851278303 -0.9490764796733856 -0.89519307166337958 -0.89551919251680379 -0.94775441139936445 -0.94709771424531941 -0.94677050560712805 -0.94644407778978346 -0.94611844718456273 0 -0.94514648616313934 -0.94450277090072632 -0.9441822335124016 -0.88551649451255798 -0.94354387074708934 -0.94322607517242441 -0.94290921837091446 -0.88300213217735291 -0.88237926065921779 -0.94102857559919362 -0.87990849614143374 -0.94040980637073512 -0.87777604311704627 2.0831823348554934e-06 -0.93918501287698741 -0.87477286159992218 0.00014384686946866676 -0.87241621315479279 -0.87038203328847885 -0.93561888188123699 -0.86866370886564248 -0.93475413173437116 -0.93418383449316023 -0.93390057086944578 -0.00026721656322475917 -0.93305841535329814 -0.93278026431798933 -0.86337234228849413 -0.93168069273233423 -0.8612182110548019 -0.86121552139520641 -0.85910446792840955 -0.93007110804319382 -0.92980755716562269 -0.85703440308570866 -0.92902508974075326 -0.92876701056957245 0 -0.85425864458084111 -0.9269992783665657 -0.92675233483314512 -0.92650679945945735 -0.85156837552785869 -0.8506116919219493 -0.92530031800270085 -0.9250632770359517 -0.84850184246897697 -0.92459346726536751 0 -0.92367097586393354 -0.84555382728576656 -0.84445369616150856 -0.84401823282241817 -0.92189471572637549 -0.92167913392186163 -0.84209303632378574 -0.92104098498821263 -0.84084249734878547 -0.92041571661829957 0.00019486472010610267 -0.91960201710462575 -0.91940215229988098 -9.1118365526166034e-05 -0.91900668516755102 1.8127262592093629e-06 -0.91823273748159406 -0.91766707077622411 -0.91748131886124606 -0.83387589603662482 0.74851702526211739 -0.91657346040010457 -0.91604534983634944 -0.83107014968991288 -0.91552957743406305 7.9158693552017212e-05 -0.91519253328442574 -7.3944032192241327e-05 -0.91453462764620785 -0.91421369761228566 -0.91389806866645817 -0.91374223008751865 -0.91358770206570628 -0.82627479732036591 0.00014034360647197097 -0.91268778890371327 -0.82452113591134557 -0.82395684532821178 -0.82340254038572314 -0.82272447980940333 -0.91155911907553677 -0.91128937602043147 -5.8784335851602698e-05 -0.91102451197803025 -0.91076447889208789 -0.82040531747043133 -0.91038338243961336 -0.91013521626591687 -0.91001288369297972 -0.81931640505790715 -0.90965281501412387 -0.90953508019447327 0.7271291639655828 -0.81749535463750367 -0.90874231569468977 -0.90863346830010416 0.7245379239320755 -0.81581355892121787 -0.90790144465863709 -0.90780106224119661 8.9888274669658319e-05 -0.81445086225867269 -0.81398860290646546 -0.90712679140269747 8.2071498036406787e-05 -0.90667472071945676 -0.8125902080908417 -0.81267083641141658 -0.90633014105260368 -6.9698691368080823e-05 -0.90600026771426201 -0.81145785190165043 6.8590790033351556e-05 -0.81062959413975477 -0.9053095640614629 -0.90523706376552582 -0.81005940157920131 -0.80978400819003582 -0.80951494127511969 -0.90475226435810319 -0.90468617044389243 -0.80899536330252886 -0.80874464213848118 -0.904367134347558 -0.80837960150092836 -0.80814345125108966 -0.90406655501574273 -0.80768935605883596 -0.90395131055265665 -0.90389473140239718 -0.80736074205487962 -0.80714921448379751 -0.90356946494430312 -0.80684163738042114 -0.90341568551957607 -0.80649759490042927 -0.90331633258610966 -0.90321945641189816 -0.90317193232476711 -0.90312500959262254 -0.80598579337820409 0 -0.90289920987561345 -0.80546777863055463 -0.80526403049007056 -1.4061015099264829e-05 -0.90256708962842813 -1.2790970504272803e-05 -0.90245130248367789 -0.90237664636224513 -0.90230396883562203 -0.90226835869252686 1.4111585915077551e-05 -0.80417362619191413 -0.90209738817065954 -0.9020322086289525 0 0 0 0.99993255436420436 0 0 0.99977056086063376 0.99971130192279811 0.99953844845294948 0.99945538341999052 0.99933086335659027 0 0 0.99904079735279083 0 0 0 0.99841909110546112 0.99799629449844363 0.99741029441356654 0 0.99739991724491117 0 0.9968693941831589 0.9965865939855576 0 0.9959864616394043 0.99566935300827031 0 0 0.99500163793563845 0.9944720357656478 0 0 0 0 0.99304458796978001 0 0.99253448843955994 0 0 0.99158106148242942 0 0 0 0 0 0.99011403620243077 0.98964335918426505 0 0 0 0 0.98817800283432011 0.987672358751297 0.98703029751777649 0 0.98598104417324062 0 0 0 0 0 0.98419145643711081 0 0 0.98262732923030849 0 0.9818970948457717 0.98101488649845126 0.98100996911525729 0.97995977401733403 0 0.97919571101665492 0.97857983112335201 0.97733258605003359 0.97670162022113804 0 0.97574655711650848 0 0.97478176057338717 0.974133488535881 0 0.97315397560596462 0 0.97200334966182711 0 0 0.9705050140619278 0.96983545720577236 0 0 0 0.96815092861652374 0.96747336983680721 0 0.96577182114124294 0.96508863568305969 0.96440427005290985 0.96371891200542459 0.96268942058086393 0 0 0.96131500005722048 0 0 0 0 0 0.9585655242204667 0.95771000087261204 0 0.9561662435531616 0 0 0.95480087697505955 0 0.95344121754169464 0 0 0.95208851695060726 0.95141514837741847 0.95074396133422856 0.95007510036230092 0 0 0 0.94760339409112926 0.94775441139936445 0 0 0 0 0 0.94514648616313934 0 0 0 0.94276499450206752 0 0 0 0.94149815142154691 0.94118670821189876 0 0.93995130211114886 0 0.93888906985521314 0.93858671635389324 0 0.9373810321092606 0.93664445132017138 0.93620911091566095 0.93518799096345906 0 0.93432881832122805 0 0 0 0.93305841535329814 0 0 0.93168069273233423 0 0.93061003834009171 0.9306022703647614 0.92955315560102458 0 0 0.92851811498403558 0 0 0.92774852067232128 0.92712620943784718 0 0 0 0.92577866166830058 0.92530031800270085 0 0 0.92424779757857323 0 0.92367097586393354 0 0.92277137935161591 0.92222372218966486 0.92200598940253253 0 0 0.92104098498821263 0 0.92041571661829957 0 0.91980330422520629 0 0 0.91871674358844757 0 0.91805060505867009 0 0 0 0.91693243607878683 0.91657346040010457 0 0 0.91552957743406305 0 0.91494621187448499 0 0.9142963379621506 0 0 0 0 0 0.91313193589448927 0.91283455491065979 0 0.91225512064993386 0.91197298094630241 0.91169583424925804 0.91135921925306318 0 0 0.91083189435303202 0 0 0.91019966490566739 0 0 0 0.90965281501412387 0 0 0.90918865203857413 0.90874231569468977 0 0 0.90831338800489902 0.90790144465863709 0 0 0.9075060561299324 0.90722011998295782 0.90699140690267077 0 0.90676321461796761 0 0.90630187485367064 0.90633014105260368 0 0.90600026771426201 0 0.90572608225047579 0.90553207732737062 0.9053095640614629 0 0 0.90502448119223122 0.90488679111003878 0.90475226435810319 0 0 0.90449248850345609 0.904367134347558 0 0.90418462380766873 0.90406655501574273 0 0.9038459425792098 0 0 0.90367522239685061 0.90356946494430312 0 0.90341568551957607 0 0.90324608273804197 0 0 0 0 0.90298779020085929 0.90289920987561345 0 0.90272879991680388 0.90262934090569624 0.90258944444358347 0 0.90239771781489253 0 0 0 0 0.902150041423738 0.90209381626918916 0 0 0 0 0.9999807268381119 0 0 0.99987157583236697 0.99982668161392207 0.99968725740909581 0.99961845576763153 0.99951290786266322 0 0 0.99926059544086454 0 0 0 0.99870407879352574 0.99831795692443848 0.99777700304985051 0 0.99776672720909121 0 0.99727170169353485 0.99700642824172969 0 0.99644085764884949 0.99614077806472778 0 0 0.99550658762454991 0.99500163793563845 0 0 0 0 0.99363381862640376 0 0.99314295947551723 0 0 0.99222322106361394 0 0 0 0 0 0.99080281257629399 0.99034594893455496 0 0 0 0 0.98892051577568052 0.98842765688896184 0.98780117928981781 0 0.98677591085433958 0 0 0 0 0 0.98502323627471922 0 0 0.98348785042762754 0 0.98277000486850741 0.98190194070339198 0.9818970948457717 0.98086262643337252 0 0.98010928332805636 0.97950162589550027 0.97826991975307465 0.97764627039432528 0 0.97670162022113804 0 0.97574655711650848 0.97510439753532419 0 0.974133488535881 0 0.97299201786518097 0 0 0.97150416970252995 0.97083877921104433 0 0 0 0.96916337013244624 0.96848895251750944 0 0.9667939692735672 0.96611291170120239 0.96543038785457602 0.96474658846855166 0.96371891200542459 0 0 0.96234595775604248 0 0 0 0 0 0.95959618389606471 0.95873968601226811 0 0.95719325542449951 0 0 0.95582443475723267 0 0.95446037650108329 0 0 0.95310234427452079 0.9524259746074677 0.9517515689134598 0.95107927322387686 0 0 0 0.94859273880720141 0.94874491989612575 0 0 0 0 0 0.94611844718456273 0 0 0 0.94371689110994339 0 0 0 0.94243849962949744 0.94212406128644943 0 0.94087629020214081 0 0.93980275392532353 0.93949710130691533 0 0.93827792853116987 0.93753263801336284 0.93709197193384175 0.93605824410915373 0 0.93518799096345906 0 0 0 0.93390057086944578 0 0 0.93250340968370438 0 0.9314168393611908 0.93140908926725396 0.93034378737211232 0 0 0.92929233610630035 0 0 0.92851030975580207 0.92787754684686663 0 0 0 0.92650679945945735 0.92601996064186098 0 0 0.9249482326209546 0 0.92436070144176485 0 0.92344392836093903 0.92288552075624464 0.92266348749399185 0 0 0.92167913392186163 0 0.92104098498821263 0 0.92041571661829957 0 0 0.91930569410324092 0 0.91862472072243695 0 0 0 0.91748131886124606 0.91711400523781772 0 0 0.91604534983634944 0 0.91544772535562524 0 0.91478173658251771 0 0 0 0 0 0.91358770206570628 0.91328255981206885 0 0.91268778890371327 0.91239807680249219 0.91211342401802542 0.91176752820610996 0 0 0.91122556887567041 0 0 0.91057544872164731 0 0 0 0.91001288369297972 0 0 0.90953508019447327 0.90907541289925575 0 0 0.90863346830010416 0.9082088265568018 0 0 0.90780106224119661 0.9075060561299324 0.90726993344724183 0 0.90703444331884375 0 0.90655755363404755 0.90658717341721062 0 0.90624631103128195 0 0.90596278700977573 0.90576225072145466 0.90553207732737062 0 0 0.90523706376552582 0.90509452912956478 0.90495523735880856 0 0 0.90468617044389243 0.90455628912895913 0 0.904367134347558 0.90424473322927956 0 0.90401570498943329 0 0 0.90383883938193321 0.90372909121215339 0 0.90356946494430312 0 0.90339325610548249 0 0 0 0 0.90312500959262254 0.90303294435143466 0 0.90285577205941081 0.90275223096832624 0.90271072862669821 0 0.90251121902838349 0 0 0 0 0.90225332025438543 0.90219433698803186 0 0 0 0.99999036490917204 0 0 0.99989885389804845 0.9998587548732758 0.99973050355911253 0.99966646730899811 0.99956726729869838 0 0 0.99932758808135991 0 0 0 0.99879291057586661 0.99841909110546112 0.99789325594902034 0 0.997883015871048 0 0.99739991724491117 0.99714053571224215 0 0.9965865939855576 0.99629224836826324 0 0 0.99566935300827031 0.99517271518707273 0 0 0 0 0.99382502734661105 0 0.99334067404270177 0 0 0.99243233501911166 0 0 0 0 0 0.99102772176265719 0.99057554900646205 0 0 0 0 0.98916367888450618 0.98867516815662382 0.98805399835109708 0 0.98703690767288199 0 0 0 0 0 0.98529683649539945 0 0 0.98377129733562474 0 0.98305769860744474 0.9821944952011108 0.9821896791458129 0.98116062283515926 0 0.98041097819805145 0.97980615794658665 0.97857983112335201 0.97795872390270233 0 0.9770176947116852 0 0.97606602609157567 0.97542600631713872 0 0.97445811629295354 0 0.97331987023353572 0 0 0.97183574438095088 0.97117183804512019 0 0 0 0.96949971914291377 0.96882643997669216 0 0.9671338886022568 0.96645363569259646 0.96577182114124294 0.96508863568305969 0.9640617042779922 0 0 0.96268942058086393 0 0 0 0 0 0.95993990004062657 0.95908318758010869 0 0.95753605067729941 0 0 0.9561662435531616 0 0.95480087697505955 0 0 0.95344121754169464 0.95276392400264731 0.95208851695060726 0.95141514837741847 0 0 0 0.94892393052577972 0.9490764796733856 0 0 0 0 0 0.94644407778978346 0 0 0 0.9440360471606255 0 0 0 0.94275391697883615 0.94243849962949744 0 0.94118670821189876 0 0.94010948687791829 0.93980275392532353 0 0.93857917189598083 0.93783102780580518 0.93738861680030827 0.93635074943304064 0 0.93547685593366625 0 0 0 0.93418383449316023 0 0 0.93278026431798933 0 0.9316884368658066 0.93168069273233423 0.93061003834009171 0 0 0.92955315560102458 0 0 0.92876701056957245 0.92813078165054319 0 0 0 0.92675233483314512 0.92626267373561855 0 0 0.92518456056714049 0 0.92459346726536751 0 0.92367097586393354 0.92310898751020432 0.92288552075624464 0 0 0.92189471572637549 0 0.92125226929783821 0 0.92062270939350133 0 0 0.9195048481225967 0 0.91881891563534734 0 0 0 0.91766707077622411 0.91729696467518806 0 0 0.91622001081705085 0 0.91561760529875746 0 0.91494621187448499 0 0 0 0 0 0.91374223008751865 0.91343448013067241 0 0.91283455491065979 0.91254229806363585 0.91225512064993386 0.91190610304474828 0 0 0.91135921925306318 0 0 0.91070307530462746 0 0 0 0.91013521626591687 0 0 0.90965281501412387 0.90918865203857413 0 0 0.90874231569468977 0.90831338800489902 0 0 0.90790144465863709 0.90760337486863141 0.90736474804580214 0 0.90712679140269747 0 0.906644643470645 0.90667472071945676 0 0.90633014105260368 0 0.90604345630854366 0.90584070924669502 0.90560794156044722 0 0 0.9053095640614629 0.90516538769006727 0.90502448119223122 0 0 0.90475226435810319 0.90462084766477346 0 0.90442943908274165 0.90430556796491146 0 0.9040736835449934 0 0 0.90389473140239718 0.90378362815827129 0 0.90362201575189838 0 0.90344356223940847 0 0 0 0 0.90317193232476711 0.90307868216186771 0 0.90289920987561345 0.9027942799031734 0.90275223096832624 0 0.90255007231608031 0 0 0 0 0.90228869216516616 0.90222876928746698 0 0 0.99999678730964658 0 0 0.99992292523384096 0.99988762736320491 0.99977056086063376 0.99971130192279811 0.99961845576763153 0 0 0.99939143359661098 0 0 0 0.99887864589691167 0.9985171616077424 0.99800649881362924 0 0.99799629449844363 0 0.99752516746520992 0.99727170169353485 0 0.99672944545745845 0.99644085764884949 0 0 0.99582931697368626 0.99534103870391843 0 0 0 0 0.99401360750198364 0 0.99353580176830292 0 0 0.99263894557952881 0 0 0 0 0 0.99125025570392611 0.99080281257629399 0 0 0 0 0.98940463364124298 0.98892051577568052 0.98830470442771912 0 0.98729588389396672 0 0 0 0 0 0.985568568110466 0 0 0.98405300378799443 0 0.98334371447563163 0.98248544931411741 0.98248065710067745 0.98145709633827205 0 0.98071121573448183 0.98010928332805636 0.97888843715190887 0.97826991975307465 0 0.97733258605003359 0 0.97638438940048222 0.97574655711650848 0 0.97478176057338717 0 0.97364682853221884 0 0 0.97216653525829311 0.97150416970252995 0 0 0 0.96983545720577236 0.96916337013244624 0 0.96747336983680721 0.9667939692735672 0.96611291170120239 0.96543038785457602 0.96440427005290985 0 0 0.96303274631500246 0 0 0 0 0 0.96028366088867179 0.95942678451538088 0 0.95787904262542722 0 0 0.95650832951068876 0 0.95514173209667208 0 0 0.95378052890300746 0.95310234427452079 0.9524259746074677 0.9517515689134598 0 0 0 0.94925579428672791 0.94940870851278303 0 0 0 0 0 0.94677050560712805 0 0 0 0.94435610920190816 0 0 0 0.94307029098272332 0.94275391697883615 0 0.94149815142154691 0 0.94041728377342226 0.94010948687791829 0 0.93888153731822965 0.93813056498765945 0.93768642395734791 0.93664445132017138 0 0.93576694279909134 0 0 0 0.93446835726499555 0 0 0.93305841535329814 0 0.93196135610342035 0.93195361793041231 0.93087763339281082 0 0 0.92981534153223033 0 0 0.92902508974075326 0.92838540524244306 0 0 0 0.9269992783665657 0.92650679945945735 0 0 0.92542231231927863 0 0.92482765913009646 0 0.92389945462346068 0.92333388626575474 0.92310898751020432 0 0 0.92211173102259636 0 0.92146498560905454 0 0.92083113193511967 0 0 0.91970542445778847 0 0.91901452392339711 0 0 0 0.91785422265529637 0.91748131886124606 0 0 0.91639604642987249 0 0.91578884795308113 0 0.91511203274130826 0 0 0 0 0 0.91389806866645817 0.91358770206570628 0 0.91298260241746898 0.91268778890371327 0.91239807680249219 0.91204592324793343 0 0 0.91149409189820285 0 0 0.91083189435303202 0 0 0 0.91025871373713019 0 0 0.90977168977260581 0.90930300541222087 0 0 0.90885225124657154 0.90841901116073132 0 0 0.9080028615891933 0.9077017080038785 0.9074605599045753 0 0.90722011998295782 0 0.90673267617821696 0.90676321461796761 0 0.90641489028930655 0 0.90612502079457036 0.90592004600912324 0.90568466372787948 0 0 0.90538289528340099 0.90523706376552582 0.90509452912956478 0 0 0.90481913574039941 0.90468617044389243 0 0.90449248850345609 0.904367134347558 0 0.90413236804306507 0 0 0.90395131055265665 0.90383883938193321 0 0.90367522239685061 0 0.90349450297653677 0 0 0 0 0.90321945641189816 0.90312500959262254 0 0.90294321393594146 0.90283688101917503 0.9027942799031734 0 0.90258944444358347 0 0 0 0 0.90232454556971797 0.90226367274299268 0 0 -0.99999678730964658 -0.99999036490917204 -4.8190355300681276e-06 -0.99983944296836857 -0.99964692592620852 -0.99953473210334787 -0.99936813712120054 -0.99970806539058688 -0.99961520731449127 0.9980085253715516 -0.99945212304592135 -0.99926059544086454 -0.99919046163558956 0.99664568305015555 0 -0.99630531966686253 -0.99841909110546112 -0.99632353782653804 -0.99810655117034908 -0.9954173803329468 0 -0.99727170169353485 -0.993879035115242 -0.99331925213336947 -0.9965865939855576 -0.99644085764884949 0 0 -0.99534103870391843 -0.99517271518707273 -0.99500163793563845 -0.99482782185077667 -0.98858074247837069 -0.9944720357656478 -0.98764976561069484 -0.99372832477092743 -0.99353580176830292 -0.98588602244853973 -0.99314295947551723 -0.99273985028266909 -0.99253448843955994 -0.99232661426067348 -0.99211625158786765 -0.98316173255443573 -0.9822811901569366 -0.99102772176265719 -0.99080281257629399 -0.99057554900646205 -0.99034594893455496 -0.97952640652656553 -0.97857152521610258 -0.00036082565784456566 -0.98892051577568052 -0.97533962428569798 -0.98792622983455658 -0.987672358751297 -0.98715840876102445 -0.98689837753772736 -0.98663634061813354 -0.00052551031112674229 -0.98583840727806094 -0.985568568110466 -0.96894246041774745 -0.98474779129028311 -0.96754185855388641 -0.9658275842666626 -0.96583091616630556 -0.96379582583904266 -0.9821896791458129 -0.96232039928436286 0.94033926725387573 -0.9587005496025085 -0.95747148096561441 -0.97857983112335201 -0.95560820698738103 -0.97764627039432528 -0.95372252762317655 -0.95245362818241119 -0.97606602609157567 -0.00063022077083590977 -0.97510439753532419 -0.94826923608779912 -0.97380790710449217 -0.97348139584064486 -0.94532541036605833 -0.94400549232959752 -0.97183574438095088 -0.97150416970252995 -0.97117183804512019 -0.94067879021167755 0.90750237703323355 -0.96882643997669216 -0.93596653342247005 -0.93461047112941742 -0.93325081765651707 0 -0.92983843684196477 -0.96474658846855166 -0.96440427005290985 0 -0.96303274631500246 -0.96268942058086393 -0.96234595775604248 -0.96200238466262822 -0.96165872514247897 -0.92160189151763916 0.8777801752090455 -0.96028366088867179 -0.9167909443378448 -0.9582222074270248 -0.95787904262542722 -0.00033592283725736305 -0.95685067474842067 -0.91131057143211369 -0.95548292398452761 -0.95514173209667208 -0.90858384370803824 -0.90722495913505552 -0.90586948096752162 0 -0.9517515689134598 -0.95141514837741847 -0.95107927322387686 -0.89948892295360561 -0.8998199015855789 -0.94974158853292456 -0.9490764796733856 -0.94874491989612575 -0.94841404408216468 -0.94808386862277982 -0.00032078623771669701 -0.94709771424531941 -0.94644407778978346 -0.94611844718456273 -0.88965508192777643 -0.94546963572502141 -0.94514648616313934 -0.94482419341802593 -0.88709188252687454 -0.88645630180835722 -0.94290921837091446 -0.88393306285142892 -0.94227838218212123 -0.88175253123044972 -0.00029922574758528553 -0.94102857559919362 -0.87867781519889832 -0.00014688968658449486 -0.87626123279333112 -0.87417314052581785 -0.9373810321092606 -0.87240739017724989 -0.93649459630250931 -0.93590958118438716 -0.93561888188123699 -0.00055423676967619739 -0.93475413173437116 -0.93446835726499555 -0.86695964038372042 -0.9333378538489342 -0.86473709493875506 -0.86473448127508168 -0.86255377829074864 -0.93168069273233423 -0.93140908926725396 -0.8604130402207375 -0.9306022703647614 -0.93033601343631744 -0.00025303214788441331 -0.85753861218690863 -0.92851030975580207 -0.92825499176979065 -0.92800106108188629 -0.85474821180105209 -0.85375482589006424 -0.92675233483314512 -0.92650679945945735 -0.85156195312738414 -0.92601996064186098 -0.00022919550538058608 -0.9250632770359517 -0.8484932772815228 -0.84734659567475323 -0.84689250141382222 -0.92321831285953526 -0.92299412935972214 -0.84488345533609388 -0.92233017981052401 -0.84357706233859053 -0.92167913392186163 0 -0.92083113193511967 -0.92062270939350133 -0.0002909533679484877 -0.92021015286445618 -0.00018880516290664673 -0.91940215229988098 -0.91881107762455938 -0.91861688569188116 -0.83627872765064237 0.75192119702696791 -0.91766707077622411 -0.91711400523781772 -0.83332892879843712 -0.91657346040010457 -8.2972645759571417e-05 -0.91622001081705085 -0.00023870691657068566 -0.91552957743406305 -0.91519253328442574 -0.91486089527606973 -0.91469709202647209 -0.91453462764620785 -0.82827213332057004 0 -0.91358770206570628 -0.82641770839691153 -0.82582037001848219 -0.82523329965770253 -0.82451471351087102 -0.91239807680249219 -0.91211342401802542 -0.0001921042799949424 -0.9118337862193584 -0.91155911907553677 -0.82205344438552852 -0.91115633733570578 -0.91089389435946932 -0.91076447889208789 -0.82089582420885565 -0.91038338243961336 -0.91025871373713019 0.7293290629982947 -0.81895677223801611 -0.90941847935318942 -0.90930300541222087 0.72657069601118573 -0.81716238334774971 -0.90852570235729213 -0.90841901116073132 0 -0.81570571959018712 -0.81521097682416443 -0.9077017080038785 0 -0.90722011998295782 -0.81371237672865382 -0.81379894353449345 -0.90685266181826596 -0.00015436410903924003 -0.90650056563317771 -0.81249674707651132 0 -0.8116061726585031 -0.90576225072145466 -0.90568466372787948 -0.8109923541545867 -0.81069567203521731 -0.8104056641459465 -0.90516538769006727 -0.90509452912956478 -0.80984524115920076 -0.80957461278885601 -0.90475226435810319 -0.80918034948408601 -0.80892514027655116 -0.90442943908274165 -0.80843401383608582 -0.90430556796491146 -0.90424473322927956 -0.80807835068553691 -0.80784925464540724 -0.90389473140239718 -0.8075159320607781 -0.90372909121215339 -0.80714279208332296 -0.90362201575189838 -0.90351756364107128 -0.90346630588173871 -0.90341568551957607 -0.80658713318407538 -4.0500331670079159e-05 -0.90317193232476711 -0.80602394724264737 -0.80580219868570557 -5.1854085177160947e-05 -0.90281289489939809 -4.7797150909856256e-05 -0.90268757073208694 -0.90260672112926832 -0.90252797957509756 -0.90248938566073778 -1.440029591320835e-05 -0.8046130865812301 -0.90230396883562203 -0.90223322752863166 0 0.99998714923858634 0.99997109174728394 0.99989885389804845 0.9998587548732758 0.99979141056537624 0 0 0.99961520731449127 0 0 0 0.99919046163558956 0.99887864589691167 0.99842917621135707 0 0.99841909110546112 0 0.99799629449844363 0.99776672720909121 0 0.99727170169353485 0.99700642824172969 0 0 0.99644085764884949 0.9959864616394043 0 0 0 0 0.99474128186702737 0 0.99429010152816777 0 0 0.9934399962425231 0 0 0 0 0 0.99211625158786765 0.99168812334537504 0 0 0 0 0.99034594893455496 0.98987983465194707 0.98928600847721104 0 0.98831114768981931 0 0 0 0 0 0.98663634061813354 0 0 0.98516198098659513 0 0.98447052240371702 0.98363272547721858 0.98362802863121024 0.98262732923030849 0 0.9818970948457717 0.98130721747875216 0.98010928332805636 0.97950162589550027 0 0.97857983112335201 0 0.97764627039432528 0.9770176947116852 0 0.97606602609157567 0 0.97494523227214813 0 0 0.97348139584064486 0.97282567620277405 0 0 0 0.97117183804512019 0.9705050140619278 0 0.96882643997669216 0.96815092861652374 0.96747336983680721 0.9667939692735672 0.96577182114124294 0 0 0.96440427005290985 0 0 0 0 0 0.96165872514247897 0.96080174446105959 0 0.9592525333166122 0 0 0.95787904262542722 0 0.95650832951068876 0 0 0.95514173209667208 0.95446037650108329 0.95378052890300746 0.95310234427452079 0 0 0 0.95058967620134349 0.95074396133422856 0 0 0 0 0 0.94808386862277982 0 0 0 0.94564513862133026 0 0 0 0.94434513300657263 0.9440250486135483 0 0.94275391697883615 0 0.94165889471769337 0.94134695380926137 0 0.94010199755430224 0.9393399834632874 0.93888906985521314 0.93783102780580518 0 0.93693933933973317 0 0 0 0.93561888188123699 0 0 0.93418383449316023 0 0.93306612521409993 0.93305841535329814 0.93196135610342035 0 0 0.93087763339281082 0 0 0.93007110804319382 0.92941770553588865 0 0 0 0.92800106108188629 0.92749737352132788 0 0 0.92638749778270724 0 0.92577866166830058 0 0.92482765913009646 0.92424779757857323 0.92401717454195031 0 0 0.92299412935972214 0 0.92233017981052401 0 0.92167913392186163 0 0 0.92052197828888893 0 0.9198111511766911 0 0 0 0.91861688569188116 0.91823273748159406 0 0 0.91711400523781772 0 0.91648750677704816 0 0.91578884795308113 0 0 0 0 0 0.91453462764620785 0.91421369761228566 0 0.91358770206570628 0.91328255981206885 0.91298260241746898 0.9126177694648504 0 0 0.91204592324793343 0 0 0.91135921925306318 0 0 0 0.91076447889208789 0 0 0.91025871373713019 0.90977168977260581 0 0 0.90930300541222087 0.90885225124657154 0 0 0.90841901116073132 0.90810532011091705 0.90785391926765446 0 0.90760337486863141 0 0.90709437355399136 0.90712679140269747 0 0.90676321461796761 0 0.90646036826074128 0.90624631103128195 0.90600026771426201 0 0 0.90568466372787948 0.90553207732737062 0.90538289528340099 0 0 0.90509452912956478 0.90495523735880856 0 0.90475226435810319 0.90462084766477346 0 0.90437429510056977 0 0 0.90418462380766873 0.90406655501574273 0 0.90389473140239718 0 0.90370473116636274 0 0 0 0 0.90341568551957607 0.90331633258610966 0 0.90312500959262254 0.90301292045041914 0.90296805389225487 0 0.90275223096832624 0 0 0 0 0.90247287908568974 0.90240810178220277 0 0 0.99999518096446993 0.99998393952846532 0.99992292523384096 0.99988762736320491 0.99982668161392207 0 0 0.99966322779655459 0 0 0 0.99926059544086454 0.99896127879619601 0.99852721691131596 0 0.9985171616077424 0 0.99810655117034908 0.997883015871048 0 0.99739991724491117 0.99714053571224215 0 0 0.9965865939855576 0.99614077806472778 0 0 0 0 0.99491645395755768 0 0.9944720357656478 0 0 0.99363381862640376 0 0 0 0 0 0.99232661426067348 0.99190341532230375 0 0 0 0 0.99057554900646205 0.99011403620243077 0.98952584564685819 0 0.98855969011783595 0 0 0 0 0 0.98689837753772736 0 0 0.98543463945388798 0 0.98474779129028311 0.98391529023647306 0.98391061723232265 0.98291584253311148 0 0.9821896791458129 0.98160293400287624 0.98041097819805145 0.97980615794658665 0 0.97888843715190887 0 0.97795872390270233 0.97733258605003359 0 0.97638438940048222 0 0.97526735067367554 0 0 0.97380790710449217 0.97315397560596462 0 0 0 0.97150416970252995 0.97083877921104433 0 0.96916337013244624 0.96848895251750944 0.967812392115593 0.9671338886022568 0.96611291170120239 0 0 0.96474658846855166 0 0 0 0 0 0.96200238466262822 0.96114551723003383 0 0.95959618389606471 0 0 0.9582222074270248 0 0.95685067474842067 0 0 0.95548292398452761 0.95480087697505955 0.95412025451660154 0.95344121754169464 0 0 0 0.95092466473579407 0.95107927322387686 0 0 0 0 0 0.94841404408216468 0 0 0 0.94596951752901082 0 0 0 0.94466610997915268 0.94434513300657263 0 0.94307029098272332 0 0.94197184443473814 0.94165889471769337 0 0.94040980637073512 0.93964510113000865 0.93919253647327428 0.93813056498765945 0 0.93723540455102916 0 0 0 0.93590958118438716 0 0 0.93446835726499555 0 0.9333455577492713 0.9333378538489342 0.93223559111356735 0 0 0.93114657104015353 0 0 0.93033601343631744 0.92967921197414394 0 0 0 0.92825499176979065 0.92774852067232128 0 0 0.92663232684135433 0 0.92601996064186098 0 0.9250632770359517 0.9244798488914967 0.92424779757857323 0 0 0.92321831285953526 0 0.92255006283521657 0 0.92189471572637549 0 0 0.92072968631982799 0 0.92001386359333992 0 0 0 0.91881107762455938 0.91842410638928418 0 0 0.91729696467518806 0 0.91666561141610148 0 0.91596145480871205 0 0 0 0 0 0.91469709202647209 0.91437349766492848 0 0.91374223008751865 0.91343448013067241 0.91313193589448927 0.91276389956474313 0 0 0.91218699440360074 0 0 0.91149409189820285 0 0 0 0.91089389435946932 0 0 0.91038338243961336 0.90989171043038364 0 0 0.90941847935318942 0.90896328128874304 0 0 0.90852570235729213 0.9082088265568018 0.90795482061803345 0 0.9077017080038785 0 0.90718722343444824 0.90722011998295782 0 0.90685266181826596 0 0.90654651150107379 0.90633014105260368 0.90608138125389814 0 0 0.90576225072145466 0.90560794156044722 0.90545706413686267 0 0 0.90516538769006727 0.90502448119223122 0 0.90481913574039941 0.90468617044389243 0 0.90443660616874699 0 0 0.90424473322927956 0.90412523318082094 0 0.90395131055265665 0 0.90375893544405694 0 0 0 0 0.90346630588173871 0.90336569640785458 0 0.90317193232476711 0.90305836796760564 0.90301292045041914 0 0.9027942799031734 0 0 0 0 0.90251121902838349 0.90244543906301256 0 0 -0.999993571639061 -0.99992452561855316 -0.9998651266098022 -0.99976884722709658 -0.99991008341312404 -0.99985553026199336 0.99896421432495108 -0.99974971711635585 -0.99961520731449127 -0.99956401288509367 0.99792233109474182 6.9972872734080926e-05 -0.9973961800336838 -0.99896127879619601 -0.99741470515727992 -0.99870407879352574 -0.99664250016212463 0.00010383427143095814 -0.99799629449844363 -0.99530152976512909 -0.99480650424957273 -0.99739991724491117 -0.99727170169353485 0.00013352632522578567 0.00014218688011169434 -0.99629224836826324 -0.99614077806472778 -0.9959864616394043 -0.99582931697368626 -0.99051924347877496 -0.99550658762454991 -0.98966255486011501 -0.99482782185077667 -0.99465128183364859 -0.98802938461303713 -0.99429010152816777 -0.99391822814941411 -0.99372832477092743 -0.99353580176830292 -0.99334067404270177 -0.98548680245876308 -0.98466037511825566 -0.99232661426067348 -0.99211625158786765 -0.99190341532230375 -0.99168812334537504 -0.98206270337104806 -0.98115839660167692 -0.00011204779148099586 -0.99034594893455496 -0.97808394730091097 -0.98940463364124298 -0.98916367888450618 -0.98867516815662382 -0.98842765688896184 -0.98817800283432011 -0.00025039315223696068 -0.9874164104461669 -0.98715840876102445 -0.97195148468017578 -0.9863723158836365 -0.97060143947601318 -0.96894528567790983 -0.968948882818222 -0.96697880923748014 -0.98391061723232265 -0.96554799079895015 0.94540683925151825 -0.96202806830406196 -0.96083013415336604 -0.98041097819805145 -0.95901150405406965 -0.97950162589550027 -0.95716799199581148 -0.95592582523822789 -0.97795872390270233 -0.00030759274959563099 -0.9770176947116852 -0.95182057321071611 -0.97574655711650848 -0.97542600631713872 -0.94892488420009613 -0.94762451946735382 -0.97380790710449217 -0.97348139584064486 -0.97315397560596462 -0.94434190094470982 0.91319386959075932 -0.97083877921104433 -0.93967991769313808 -0.93833579421043389 -0.93698700368404386 0.00033259987831119053 -0.93359715938568111 -0.9667939692735672 -0.96645363569259646 0.00033532977104189232 -0.96508863568305969 -0.96474658846855166 -0.96440427005290985 -0.9640617042779922 -0.96371891200542459 -0.92538833916187291 0.88362365663051601 -0.96234595775604248 -0.92057698071002958 -0.96028366088867179 -0.95993990004062657 0 -0.95890897214412685 -0.9150819331407547 -0.95753605067729941 -0.95719325542449951 -0.91234239935874939 -0.91097580194473271 -0.90961174368858333 0.00033330321311952904 -0.95378052890300746 -0.95344121754169464 -0.95310234427452079 -0.90317876636981964 -0.9035133004188538 -0.9517515689134598 -0.95107927322387686 -0.95074396133422856 -0.95040923058986659 -0.95007510036230092 0 -0.9490764796733856 -0.94841404408216468 -0.94808386862277982 -0.89322776794433589 -0.947425688803196 -0.94709771424531941 -0.94677050560712805 -0.89062703102827068 -0.88998161107301721 -0.94482419341802593 -0.88741748183965674 -0.9441822335124016 -0.88519917130470271 2.2217631339693789e-06 -0.94290921837091446 -0.88206781744956975 0.00015069544315338135 -0.87960337847471237 -0.87747201919555662 -0.93918501287698741 -0.87566802203655236 -0.93827792853116987 -0.93767884820699687 -0.9373810321092606 -0.00028226971626277297 -0.93649459630250931 -0.93620148897171018 -0.87009316831827155 -0.93504114896059032 -0.86781457960605612 -0.867812043428421 -0.86557405143976207 -0.9333378538489342 -0.93305841535329814 -0.8633749857544899 -0.93222785890102389 -0.93195361793041231 0 -0.86041878759861001 -0.93007110804319382 -0.92980755716562269 -0.92954536825418477 -0.85754503458738329 -0.85652100592851643 -0.92825499176979065 -0.92800106108188629 -0.85425864458084111 -0.92749737352132788 0 -0.92650679945945735 -0.85108861476182929 -0.84990270733833317 -0.84943290054798126 -0.92459346726536751 -0.92436070144176485 -0.84735301807522767 -0.92367097586393354 -0.84599932730197902 -0.92299412935972214 0.00021202638745304592 -0.92211173102259636 -0.92189471572637549 -9.9660456180594714e-05 -0.92146498560905454 1.7888844012770022e-06 -0.92062270939350133 -0.92000601589679709 -0.91980330422520629 -0.83841847255825996 0.75511267781257629 -0.91881107762455938 -0.91823273748159406 -0.83534517660737029 -0.91766707077622411 8.7334960699070319e-05 -0.91729696467518806 -8.2050263881638941e-05 -0.91657346040010457 -0.91622001081705085 -0.91587205976247787 -0.91570013687014584 -0.91552957743406305 -0.83006306365132332 0.00015604197978968948 -0.91453462764620785 -0.82812140136957169 -0.8274954058229923 -0.82687989696860309 -0.8261261060833931 -0.91328255981206885 -0.91298260241746898 -6.6170096397422107e-05 -0.91268778890371327 -0.91239807680249219 -0.82354111522436146 -0.91197298094630241 -0.91169583424925804 -0.91155911907553677 -0.82232352308928969 -0.91115633733570578 -0.91102451197803025 0.73141704984009259 -0.82028123252093788 -0.91013521626591687 -0.91001288369297972 0.72850374840199938 -0.81838805340230458 -0.90918865203857413 -0.90907541289925575 0.0001024249941110611 -0.81684872545301912 -0.81632535941898821 -0.90831338800489902 9.3960016965877191e-05 -0.90780106224119661 -0.81473830528557301 -0.81483012698590751 -0.90740974545478825 -8.0769136548031195e-05 -0.90703444331884375 -0.81344899535179138 7.9252943396612707e-05 -0.81250316947698586 -0.90624631103128195 -0.90616339333355422 -0.81185061205178499 -0.81153500806540246 -0.81122637614607807 -0.90560794156044722 -0.90553207732737062 -0.81062959413975477 -0.81034122798591857 -0.90516538769006727 -0.80992090739309797 -0.80964869055896993 -0.90481913574039941 -0.80912448670715098 -0.90468617044389243 -0.90462084766477346 -0.80874464213848118 -0.80849982686340804 -0.90424473322927956 -0.80814345125108966 -0.90406655501574273 -0.80774423182010657 -0.90395131055265665 -0.90383883938193321 -0.90378362815827129 -0.90372909121215339 -0.80714921448379751 0 -0.90346630588173871 -0.80654542408883578 -0.80630747461691499 -1.739189028748811e-05 -0.90307868216186771 -1.5954393893458096e-05 -0.90294321393594146 -0.90285577205941081 -0.90277057280763984 -0.90272879991680388 1.7017312347877844e-05 -0.8050293105654418 -0.90252797957509756 -0.90245130248367789 1.6093254089355469e-06 0 0 -0.99991330206394191 -0.9998587548732758 0.99949950277805333 -0.9997529536485672 -0.99961845576763153 -0.99956726729869838 0.99884045124053955 0.99830460548400879 -7.2887539863564221e-05 -0.99896458685398093 7.931292057039574e-05 -0.99870741367340088 9.1648101806673932e-05 0.99631746411323552 -0.997999694943428 0.00010986626148223877 0.00011585056781771019 -0.99740337431430826 -0.99727517366409302 0.99387319386005402 0.99302490651607522 -0.99629580974578857 -0.99614435434341431 -0.9959900557994843 -0.99583292007446289 7.8064203262340204e-05 -0.99551022648811338 0.00016465485095973342 -0.99483152031898503 -0.99465499818325043 8.7621808052051886e-05 -0.99429385066032405 -0.99392201304435734 -0.99373212754726414 -0.99353961944580083 -0.99334450960159293 0.00019385814666750267 0.00019893944263460472 -0.99233054816722865 -0.99212020039558402 -0.99190738201141349 -0.99169211089611053 0.00021371841430661842 0.00021848678588870518 0.9797705233097076 -0.99035005867481229 -0.00011429786682126686 -0.98940882682800291 -0.98916789293289176 -0.98867942690849309 -0.98843193650245664 -0.98818230628967285 0.97458592653274534 -0.98742077946662898 -0.98716280162334447 0.00012849271297454834 -0.98637677729129791 0.00026341676712038353 0 0.00026902258396149792 0.00013684630393984154 -0.98391529023647306 0.00027959346771239124 0.96467031240463252 0.00028929412364958607 0.00029233098030090332 -0.98041594326496129 0.00029670298099515602 -0.97950666546821596 0.00030085146427155651 0.00030348896980286755 -0.97796388864517214 0.95373390913009648 -0.97702293395996098 0.00015488564968108021 -0.97575189769268045 -0.9754313707351685 0.00031621456146241345 0.0003182053565979337 -0.97381339967250824 -0.97348690927028647 -0.97315951883792873 0.00032273232936858021 0.94334158599376683 -0.97084449529647832 0.00032802820205690697 0.0003293156623840332 0.00033050775527954102 0.93596553504467006 0.00033305883407591663 -0.9667999774217606 -0.96645966768264768 0.9312047600746155 -0.96509476304054265 -0.96475273966789243 -0.96441044509410867 -0.96406790018081667 -0.96372513175010677 0.00033674836158753552 0.92367059290409093 -0.96235226988792422 0.00033736526966099412 -0.96029010713100438 -0.9599463671445847 0.91782791316509249 -0.9589155077934266 0.00033674240112308018 -0.95754266977310176 -0.95719989240169523 0.00033592283725741856 0.00033538639545438453 0.00033476948738098145 0.90858461856842043 -0.95378736555576316 -0.95344807803630827 -0.95310921967029572 -0.00016297996044162266 0.00033103525638578102 -0.95175851881504059 -0.95108625888824472 -0.95075096487998967 -0.95041625350713721 -0.95008214116096501 0.89816459864377973 -0.94908357113599773 -0.94842116683721533 -0.94809100925922385 -0.00015817433595655128 -0.94743285924196241 -0.94710490256547919 -0.94677770882844925 0.00015819072723388672 0.00015777349472045898 -0.94483148604631428 0.00015603154897686489 -0.9441895544528961 0 0.88426405787467943 -0.94291659593582156 0.00030553340911865234 0.88052356094121931 0 0.00014799982309343651 -0.93919253647327428 0.00014632493257527024 -0.93828548341989515 -0.93768642395734791 -0.93738861680030827 0.87272014170885082 -0.93650221079587936 -0.93620911091566095 0.00028305798769001633 -0.93504880666732793 0 0.00027810037136077881 0 -0.9333455577492713 -0.93306612521409993 0 -0.93223559111356735 -0.93196135610342035 0.8617533996701241 0.00012945234775546544 -0.93007888495922086 -0.92981534153223033 -0.92955315560102458 0.00025303214788435779 0.00025027841329572365 -0.92826280146837226 -0.92800887376070018 0.00012121051549912609 -0.92750519514083862 0.85302746444940569 -0.92651463150978086 0.00023487657308579601 0.0001148611307144054 0.00011415109038348525 -0.92460131570696835 -0.92436855137348173 0.00022348612546924107 -0.92367882952094083 0.00021919310092921584 -0.92300198525190358 0.84488632306456568 -0.9221195869147778 -0.92190257161855693 0.84210393056273469 -0.92147284001111984 0.84064799845218663 -0.92063056156039247 -0.92001386359333992 -0.9198111511766911 0.00019344240427016102 0.83763603493571281 -0.91881891563534734 -0.91824056878685956 0.00018213242292403065 -0.91767489314079287 0.83405885547399516 -0.91730478182435027 0.83246181234717365 -0.91658126413822172 -0.91622780784964564 -0.91587984934449196 -0.91570792272686963 -0.91553735956549642 0.00016142204403879479 0.82956388071179388 -0.91454238444566727 0.00015337765216827393 0.00015073195099829517 0.00014810562133787952 7.1620941162142682e-05 -0.91329027861356737 -0.91299031078815451 0.82481761462986469 -0.91269548647105703 -0.91240576431155207 6.5894424915335925e-05 -0.91198065169155607 -0.91170349344611168 -0.91156677231192584 0.00012783631682394825 -0.91116397306323049 -0.91103214211761951 0.82140633612871161 0.00011824630200862885 -0.9101428035646677 -0.91002046540379522 0.81943000331521032 0.00010905154049395405 -0.90919618867337704 -0.90908294282853608 0.81759996227920062 0.0001013435423374287 4.8531219363212585e-05 -0.90832087211310863 0.81590959504246707 -0.90780851282179353 -4.278272390367821e-05 9.0896338224399909e-05 -0.90741716884076595 0.81400066688656803 -0.90704183951020245 4.0948390960693359e-05 0.81309282369911662 7.8326836228326258e-05 -0.9062536457553505 -0.90617072135210042 7.4691139161586761e-05 7.2914361953724249e-05 7.1164593100525586e-05 -0.90561522189527754 -0.90553935077041392 6.7746452987127448e-05 6.6077895462535174e-05 -0.90517262760549788 6.3625536859013287e-05 6.2023848295233996e-05 -0.90482634212821722 0 -0.90469336397945876 -0.90462803430855265 5.6627020239841119e-05 5.5143982171990125e-05 -0.90425188094377518 5.2968226373184546e-05 -0.9040736835449934 2.4447776377223285e-05 -0.90395842622965583 -0.9038459425792098 -0.90379072483628997 -0.90373618174344306 4.6784244477737769e-05 0.80694415904581551 -0.9034733656793833 4.2941421270370483e-05 1.9898824393682624e-05 0.80617679972201595 -0.90308569418266416 0.80573089290410282 -0.90295020854100583 -0.90286275511607528 -0.90277754440903668 -0.90273576602339745 0.80518449433147898 -1.4061015099264829e-05 -0.90253491811454301 -0.90245823003351688 1.6063451766523684e-06 -1.6093254089355469e-06 -0.999975910782814 -0.99994379580020909 0.99974477589130406 -0.99987157583236697 -0.99977056086063376 -0.99973050355911253 0.99923045337200156 0.99878292381763456 -9.5385313034046515e-05 -0.99922715127468109 3.5008788108803479e-05 -0.99900266528129578 4.1234493255604132e-05 0.99703446328639989 -0.99837016761302944 5.0443410873457495e-05 5.3477287292491571e-05 -0.99782652854919429 -0.99770874381065366 0.99480008184909829 0.99401314258575446 -0.99680109918117532 -0.99665970504283907 -0.99651541411876676 -0.99636824429035187 0 -0.99606531858444214 7.8278779983509406e-05 -0.99542552530765538 -0.99525859355926516 0 -0.99491645395755768 -0.99456339180469511 -0.99438280761241904 -0.99419953823089591 -0.99401360750198364 9.3200802803061755e-05 9.5805525779757428e-05 -0.99304458796978001 -0.9928430378437042 -0.99263894557952881 -0.99243233501911166 0.00010339319705959804 0.00010584890842435524 0.98139250874519346 -0.99114080071449284 -0.00022227466106417015 -0.99023182690143585 -0.98999877274036407 -0.98952584564685819 -0.98928600847721104 -0.98904395699501046 0.97636891901493073 -0.98830470442771912 -0.98805399835109708 0 -0.98728930652141567 0.00012910962104795143 -0.00013042986392974854 0.00013203620910645641 0 -0.98488746285438533 0.00013757050037382923 0.9666889399290084 0.00014267563819886364 0.00014428198337551601 -0.98145709633827205 0.00014659464359284557 -0.98056313693523411 0.00014880001544953503 0.00015020668506626755 -0.97904414534568796 0.95593294799327855 -0.97811641097068791 0 -0.97686177194118495 -0.97654512822628026 0.00015705525875092663 0.00015813708305362217 -0.97494523227214813 -0.97462209761142726 -0.97429796755313869 0.00016061663627620071 0.94565370976924901 -0.97200334966182711 0.00016357302665709339 0.00016430020332336426 0.00016498565673828125 0.93832937180995935 0.00016647279262538284 -0.9679839432239532 -0.96764517128467564 0.93359073698520667 -0.9662855863571167 -0.96594468653202059 -0.96560342907905583 -0.96526184380054469 -0.96491994857788077 0.0001688152551651001 0.92607497274875639 -0.96354977488517757 0.000169402360916171 -0.96148925721645351 -0.96114551723003383 0.92023324966430664 -0.96011419594287872 0.00016939938068388782 -0.95873968601226811 -0.95839630961418154 0.00016913414001462623 0.00016893744468687855 0.00016870200634000465 0.91096937954425816 -0.95497379899024959 -0.95463312566280367 -0.95429282188415532 -0.00032923519611355312 0.00016714036464693383 -0.95293565690517423 -0.95225977897644043 -0.95192258059978485 -0.95158590078353877 -0.95124975740909579 0.90049487948417661 -0.95024472624063494 -0.94957771599292751 -0.94924516826868055 -0.00032053738832471534 -0.94858206361532216 -0.94825154095888142 -0.94792173057794571 0 0 -0.94595865011215208 0 -0.94531068205833435 -0.00015603154897686489 0.88647236227989201 -0.9440250486135483 0.00015530139207836635 0.88268967866897574 -0.00015171021223070458 0 -0.94025857597589491 0 -0.9393399834632874 -0.93873304128646851 -0.93843124061822891 0.87478482425212856 -0.93753263801336284 -0.93723540455102916 0.00014444440603256226 -0.93605824410915373 -0.00014041960239413731 0.00014202594757078968 -0.00013793259859085083 -0.93432881832122805 -0.93404492586851118 -0.00013538450002670288 -0.93320086300373073 -0.93292207121849069 0.86364592313766475 0 -0.93100708574056634 -0.93073881417512894 -0.9304718881845474 0.00012970715761184692 0.00012834519147864043 -0.92915756851434705 -0.9288988023996354 0 -0.92838540524244306 0.85475673228502269 -0.9273752585053443 0.00012071132659907668 0 0 -0.92542231231927863 -0.92518456056714049 0.00011504441499710083 -0.9244798488914967 0.00011290386319162682 -0.92378798052668576 0.84644127041101447 -0.92288552075624464 -0.92266348749399185 0.84359366595745078 -0.92222372218966486 0.84210267439484598 -0.92136139348149304 -0.92072968631982799 -0.92052197828888893 0.00010001659393310547 0.83901593759655957 -0.9195048481225967 -0.9189116433262825 9.4334036111809461e-05 -0.91833118274807934 0.83534517660737029 -0.91795125901699071 0.83370443806052208 -0.91720824092626574 -0.91684510111808781 -0.91648750677704816 -0.91631078049540515 -0.91613543182611457 8.3895027637503894e-05 0.83072532340884209 -0.91511203274130826 7.9828500747725073e-05 7.8489631414380145e-05 7.7159702777829242e-05 0 -0.91382288560271263 -0.91351382508873935 0.82583674937486651 -0.9132099792361259 -0.91291130781173702 0 -0.91247291229665284 -0.91218699440360074 -0.91204592324793343 6.687790155412987e-05 -0.91163019314408311 -0.91149409189820285 0.82231710068881503 6.2000006437301636e-05 -0.91057544872164731 -0.91044900901615611 0.82027481012046333 5.7315081357978137e-05 -0.90959663987159733 -0.90947947055101397 0.81838163100183003 5.3381547331809998e-05 0 -0.90869057141244414 0.81663105040788653 -0.90815974399447441 -9.0744346380233765e-05 4.8040971159901691e-05 -0.90775404945015903 0.81465112678706642 -0.90736474804580214 0 0.81370949633419509 4.1601434350058142e-05 -0.90654651150107379 -0.90646036826074128 3.9735808968544006e-05 3.8823485374428479e-05 3.7924945354483874e-05 -0.90588300600647931 -0.90580410677939649 3.6168470978759082e-05 3.5310536622978894e-05 -0.90542259793728586 3.4048967063438074e-05 3.3224746584847864e-05 -0.90506211500614886 -3.0010193586338385e-05 -0.90492362082004552 -0.90485556833446035 3.0445307493187634e-05 2.9681064188491479e-05 -0.90446355864405636 2.8558820486024317e-05 -0.90427774079143997 0 -0.90415751542896028 -0.90404015276581051 -0.90398252885788688 -0.90392560157924895 2.5366991758368762e-05 0.80730786174535751 -0.90365119185298681 2.3381039500225409e-05 0 0.80650562662631275 -0.90324608273804197 0.80603927262127395 -0.90310440203174946 -0.90301292045041914 -0.90292376223951576 -0.90288003981113429 0.80546777863055474 -3.159111365674816e-05 -0.90266976701095702 -0.90258944444358347 0 -0.999993571639061 -0.99997109174728394 0.99982019066810612 -0.99991330206394191 -0.99982668161392207 -0.99979141056537624 0.99936813712120054 0.99895865917205806 -5.7286024093605725e-05 -0.99933086335659027 6.3711404800437244e-05 -0.99912048876285553 7.621049880984776e-05 0.99731328487396242 -0.99852051138877873 9.4711780548095703e-05 0.00010080039501192406 -0.997999694943428 -0.99788642823696139 0.99516985714435569 0.99440955817699428 -0.9970099240541459 -0.99687290191650391 -0.99673296511173248 -0.996590131521225 7.1007013320911749e-05 -0.99629580974578857 0.00015072226524354138 -0.99567297399044041 -0.99551022648811338 8.0838799476623535e-05 -0.9951763838529587 -0.99483152031898503 -0.99465499818325043 -0.99447576999664311 -0.99429385066032405 0.00018084347248076282 0.00018610060214996338 -0.99334450960159293 -0.99314681589603426 -0.99294655323028569 -0.99274373948574057 0.00020145177841190964 0.0002064138650894054 0.98206598758697505 -0.99147440493106842 -0.00010859370231625087 -0.99057963490486145 -0.99035005867481229 -0.9898839831352233 -0.98964753150939944 -0.98940882682800291 0.97711348831653599 -0.98867942690849309 -0.98843193650245664 0.00012344419956206165 -0.98767670392990103 0.0002536088228225486 0 0.00025956332683563232 0.00013232231140136719 -0.98530139029026031 0.00027084648609160267 0.96753838360309596 0.00028127133846278518 0.00028455555438999802 -0.98190194070339198 0.00028929412364958607 -0.98101488649845126 0.00029381513595583275 0.00029670298099515602 -0.97950666546821596 0.95686384439468386 -0.97858494818210606 0.00015190243721008301 -0.97733780145645144 -0.97702293395996098 0.00031080842018127441 0.00031304657459257923 -0.9754313707351685 -0.97510979175567636 -0.97478717565536499 0.0003182053565979337 0.94663679599761963 -0.97250211238861084 0.00032436847686767578 0.00032590925693509742 0.00032734274864198998 0.939337146282196 0.00033050775527954102 -0.96849483847618101 -0.96815683841705313 0.93460957407951351 -0.9667999774217606 -0.96645966768264768 -0.96611896753311155 -0.96577790081501003 -0.96543649137020116 0.0003356248140334861 0.92710408568382263 -0.96406790018081667 0.00033704042434690162 -0.96200872063636778 -0.96166508197784428 0.92126453220844273 -0.96063387095928188 0.00033729374408719703 -0.95925904512405391 -0.9589155077934266 0.00033689439296724633 0.00033656954765320934 0.00033615827560423694 0.91199446618556979 -0.95548966526985168 -0.95514849126338963 -0.95480765402317047 -0.0001641392707824596 0.00033330321311947353 -0.95344807803630827 -0.95277081727981572 -0.95243288874626164 -0.95209544897079468 -0.95175851881504059 0.90149930268526079 -0.95075096487998967 -0.95008214116096501 -0.94974864274263382 -0.00015998780727383144 -0.94908357113599773 -0.94875202625989918 -0.94842116683721533 0.00016016215085984387 0.00015978366136554234 -0.94645129740238187 0.00015819072723388672 -0.94580087661743162 0 0.88742758184671411 -0.94451007843017587 0.00031043440103534214 0.88362752944231038 0 0.00015067905187604591 -0.94072613418102269 0.00014908909797667347 -0.93980275392532353 -0.93919253647327428 -0.93888906985521314 0.87568052858114243 -0.93798538148403166 -0.93768642395734791 0.00028906017541885376 -0.93650221079587936 0 0.00028427690267562866 0 -0.93476179689168926 -0.93447603136301038 0 -0.93362627327442171 -0.9333455577492713 0.86446928232908249 0.00013277828693386562 -0.9314168393611908 -0.93114657104015353 -0.93087763339281082 0.00025983452796934925 0.00025712847709657982 -0.92955315560102458 -0.92929233610630035 0.00012468099594120652 -0.92877481132745743 0.85551085919141756 -0.92775633633136745 0.00024192482233048596 0.00011840164661414132 0.00011769533157346412 -0.92578650116920469 -0.92554662227630624 0.00023061856627459854 -0.92483550757169719 0.00022634342312810585 -0.92413721531629567 0.84712098017334936 -0.92322616726160045 -0.92300198525190358 0.84424543008208275 -0.92255791872739801 0.84273939207196236 -0.92168698981404296 -0.9210488386452198 -0.92083898484706883 0.00020057037472726025 0.83962051570415497 -0.9198111511766911 -0.91921155080199246 0.00018918514251708984 -0.91862472072243695 0.83590944334864614 -0.91824056878685956 0.83424985110759731 -0.91748913899064055 -0.91712181791663172 -0.9167600631713867 -0.91658126413822172 -0.91640384718775747 0.00016823858022685378 0.83123565018177037 -0.91536815539002414 0.0001600705087184684 0.00015738084912303441 0.00015470758080482483 7.4892491102263037e-05 -0.91406296566128731 -0.91374996304512024 0.82628541141748424 -0.91344220414757726 -0.91313964873552322 6.9049000740006861e-05 -0.91269548647105703 -0.91240576431155207 -0.9122628025710583 0.00013402067124845818 -0.9118414513766766 -0.91170349344611168 0.82271866910159597 0.00012419521808626488 -0.91077209711074825 -0.91064387112855916 0.82064765803515916 0.00011475086212159313 -0.90977925807237625 -0.90966037735342975 0.81872694492340092 0.00010681673884388454 5.1226094365142139e-05 -0.90885976813733582 0.8169500689953566 -0.90832087211310863 -4.5344233512878418e-05 9.6036121249198914e-05 -0.90790890157222748 0.81493909209966653 -0.90751348659396169 4.3391063809405939e-05 0.81398266591131685 8.3024799823749884e-05 -0.90668208971619602 -0.9065945353358984 7.9252943396612707e-05 7.7407620847236291e-05 7.5589679181531366e-05 -0.90600758194923392 -0.90592735335230823 7.2036124765861853e-05 7.0299766957770959e-05 -0.90553935077041392 6.7746452987127448e-05 6.6077895462535174e-05 -0.90517262760549788 0 -0.90503170769661667 -0.90496245734393599 6.0448981821559222e-05 5.8900378644421991e-05 -0.90456346943974486 5.6627020239841119e-05 -0.90437429510056977 2.6220828294787335e-05 -0.90425188094377518 -0.90413236804306507 -0.9040736835449934 -0.90401570498943329 5.0156749784924237e-05 0.80746982209384444 -0.90373618174344306 4.6128407120704651e-05 2.1454319357905316e-05 0.80665218960493812 -0.90332337412983188 0.80617679972201595 -0.90317895608022813 -0.90308569418266416 -0.90299479048699149 -0.90295020854100583 0.80559420706704266 -1.5399325638987271e-05 -0.90273576602339745 -0.90265383459627624 -1.0000032097101212 -0.999993571639061 0.99990365505218515 -0.99995503425598153 -0.99988762736320491 -0.9998587548732758 0.99953473210334787 0.99917609095573423 -5.0997734069857525e-05 -0.99945538341999052 5.7423114776633533e-05 -0.99926387667655936 6.9972872734025415e-05 0.99766857028007516 -0.99870741367340088 8.8575482368458136e-05 9.4711780548095703e-05 -0.99821715652942655 -0.99810993969440465 0.99564694762229922 0.99492235481739044 -0.99727517366409302 -0.99714401662349705 -0.9970099240541459 -0.99687290191650391 6.813406944278233e-05 -0.996590131521225 0.00014504790306091309 -0.9959900557994843 -0.99583292007446289 7.8064203262340204e-05 -0.99551022648811338 -0.9951763838529587 -0.9950053215026855 -0.99483152031898503 -0.99465499818325043 0.00017551183700559303 0.00018084347248076282 -0.99373212754726414 -0.99353961944580083 -0.99334450960159293 -0.99314681589603426 0.00019640624523159511 0.00020145177841190964 0.98295121788978579 -0.99190738201141349 -0.00010623931884767845 -0.99103176891803746 -0.99080688059329991 -0.99035005867481229 -0.99011816978454581 -0.9898839831352233 0.978094682097435 -0.98916789293289176 -0.98892475366592403 0.00012134611606601231 -0.98818230628967285 0.00024952590465548985 0 0.0002556145191192627 0.00013042986392974854 -0.98584291338920593 0.00026717782020568848 0.96866162121295929 0.00027789175510406494 0.00028127133846278518 -0.98248544931411741 0.00028616189956665039 -0.98160780072212217 0.00029082596302032471 0.00029381513595583275 -0.9801142752170563 0.95809804201126103 -0.97920077443122866 0.00015061795711518444 -0.97796388864517214 -0.97765146195888519 0.00030846893787384033 0.00031080842018127441 -0.97607134282588959 -0.97575189769268045 -0.9754313707351685 0.00031621456146241345 0.94794272482395181 -0.97315951883792873 0.00032273232936858021 0.00032436847686767578 0.00032590925693509742 0.9406774491071701 0.0003293156623840332 -0.96916921138763423 -0.96883230507373808 0.93596553504467006 -0.96747933328151703 -0.96713987290859227 -0.9667999774217606 -0.96645966768264768 -0.96611896753311155 0.00033501088619231068 0.9284751355648041 -0.96475273966789243 0.00033674836158753552 -0.96269570589065556 -0.96235226988792422 0.92263950705528264 -0.96132138073444362 0.00033736228942871094 -0.9599463671445847 -0.9596026718616486 0.00033713877201080322 0.00033689439296724633 0.00033656954765320934 0.91336271166801453 -0.95617294311523438 -0.95583115518093109 -0.95548966526985168 -0.00016453564167018264 0.00033407807350160912 -0.95412707328796387 -0.95344807803630827 -0.95310921967029572 -0.95277081727981572 -0.95243288874626164 0.90284156799316406 -0.95142211616039274 -0.95075096487998967 -0.95041625350713721 -0.00016065686941146851 -0.94974864274263382 -0.94941578209400168 -0.94908357113599773 0.00016089677810671166 0.00016053169965746239 -0.94710490256547919 0.00015900284051895142 -0.94645129740238187 0 0.88870606124401097 -0.94515376538038254 0.00031230151653288685 0.88488328158855434 0 0.00015171021223070458 -0.94134695380926137 0.00015015602111817516 -0.94041728377342226 -0.93980275392532353 -0.93949710130691533 0.8768808797001838 -0.93858671635389324 -0.93828548341989515 0.000291393697261777 -0.93709197193384175 0 0.00028668493032457665 0 -0.93533705174922943 -0.93504880666732793 0 -0.93419151604175565 -0.9339082598686218 0.86557405143976207 0.00013408809900283813 -0.93196135610342035 -0.9316884368658066 -0.9314168393611908 0.00026251822710038342 0.00025983452796934925 -0.93007888495922086 -0.92981534153223033 0.00012605637311935425 -0.92929233610630035 0.85652377903461452 -0.92826280146837226 0.00024472475051884324 0.00011980980634690441 0.00011910498142242432 -0.92627050876617434 -0.92602779716253281 0.00023345947265629441 -0.92530816122889514 0.0002291955053806416 -0.92460131570696835 0.8480348899960517 -0.92367882952094083 -0.92345178276300421 0.84512209370732316 -0.92300198525190358 0.843595989793539 -0.9221195869147778 -0.92147284001111984 -0.92126012369990351 0.0002034306526184082 0.84043422192335138 -0.92021800205111504 -0.91960986182093618 0.00019202083349229015 -0.91901452392339711 0.83666929826140402 -0.91862472072243695 0.8349844969809056 -0.91786204800009719 -0.91748913899064055 -0.91712181791663172 -0.91694024726748458 -0.9167600631713867 0.00017099156975747265 0.8319233603775501 -0.91570792272686963 0.00016277730464936413 0.0001600705087184684 0.00015738084912303441 7.6217949390444684e-05 -0.91438124999403958 -0.91406296566128731 0.82689053118228917 -0.91374996304512024 -0.91344220414757726 7.033050060273327e-05 -0.91299031078815451 -0.91269548647105703 -0.91254999004304405 0.00013653375208377838 -0.9121210999786854 -0.91198065169155607 0.82326063364744184 0.00012661628425120197 -0.91103214211761951 -0.91090151891112336 0.82115107402205467 0.00011707507073882573 -0.91002046540379522 -0.90989928543567655 0.81919338181614876 0.00010905154049395405 5.2327662706352918e-05 -0.90908294282853608 0.8173811662942172 -0.90853319950401779 -4.6392157673824652e-05 9.8139047622680664e-05 -0.9081127904355526 0.81532842777669434 -0.90770915150642395 4.4392049312613757e-05 0.81435209177434442 8.495189249513313e-05 -0.90686004422605038 -0.90677059032022955 8.1124901771589819e-05 7.9252943396612707e-05 7.7407620847236291e-05 -0.90617072135210042 -0.90608870219439264 7.3799304664168286e-05 7.2036124765861853e-05 -0.90569195095449684 6.9441832602046283e-05 6.7746452987127448e-05 -0.90531681738793846 0 -0.90517262760549788 -0.90510176215320826 6.2023848295233996e-05 6.0448981821559222e-05 -0.90469336397945876 5.8136135339725836e-05 -0.90449966210871935 2.6952475309371948e-05 -0.90437429510056977 -0.90425188094377518 -0.90419176500290632 -0.90413236804306507 5.1549635827541351e-05 0.80768935605883596 -0.9038459425792098 4.7446414828344885e-05 2.20978632569091e-05 0.80685093179345135 -0.90342273917049165 0.80636333553120487 -0.90327462349086995 -0.90317895608022813 -0.90308569418266416 -0.90303995041176677 0.80576574392616751 -1.5954393893458096e-05 -0.90281987236812711 -0.90273576602339745 0 0.9999807268381119 0 0 0 0.99982345402240758 0.99966322779655459 0.99940123856067653 0 0.99939143359661098 0 0.99911719262599941 0.99896127879619601 0 0.99861215949058535 0.99841909110546112 0 0 0.99799629449844363 0.99764744043350229 0 0 0 0 0.99665970504283907 0 0.99629224836826324 0 0 0.99558968245983126 0 0 0 0 0 0.9944720357656478 0.99410549402236947 0 0 0 0 0.99294267892837529 0.99253448843955994 0.9920116245746613 0 0.99114686250686646 0 0 0 0 0 0.98964335918426505 0 0 0.98830470442771912 0 0.987672358751297 0.98690279424190519 0.98689837753772736 0.9859742939472198 0 0.98529683649539945 0.98474779129028311 0.98362802863121024 0.98305769860744474 0 0.9821896791458129 0 0.98130721747875216 0.98071121573448183 0 0.97980615794658665 0 0.97873621284961698 0 0 0.97733258605003359 0.97670162022113804 0 0 0 0.97510439753532419 0.97445811629295354 0 0.97282567620277405 0.97216653525829311 0.97150416970252995 0.97083877921104433 0.96983545720577236 0 0 0.96848895251750944 0 0 0 0 0 0.96577182114124294 0.96491994857788077 0 0.9633759170770646 0 0 0.96200238466262822 0 0.96062744557857505 0 0 0.9592525333166122 0.9585655242204667 0.95787904262542722 0.95719325542449951 0 0 0 0.95464331507682809 0.95480087697505955 0 0 0 0 0 0.95208851695060726 0 0 0 0.94958831816911693 0 0 0 0.94825154095888142 0.94792173057794571 0 0.94660989642143245 0 0.94547690153121944 0.94515376538038254 0 0.94386259466409683 0.94307029098272332 0.94260070621967318 0.94149815142154691 0 0.94056690782308583 0 0 0 0.93918501287698741 0 0 0.93767884820699687 0 0.93650221079587936 0.93649459630250931 0.93533705174922943 0 0 0.93419151604175565 0 0 0.9333378538489342 0.93264456987380973 0 0 0 0.93113881349563599 0.9306022703647614 0 0 0.92941770553588865 0 0.92876701056957245 0 0.92774852067232128 0.92712620943784718 0.92687856703996663 0 0 0.92577866166830058 0 0.9250632770359517 0 0.92436070144176485 0 0 0.92310898751020432 0 0.92233803644776335 0 0 0 0.92104098498821263 0.92062270939350133 0 0 0.91940215229988098 0 0.91871674358844757 0 0.91795125901699071 0 0 0 0 0 0.91657346040010457 0.91622001081705085 0 0.91552957743406305 0.91519253328442574 0.91486089527606973 0.9144568033516407 0 0 0.91382288560271263 0 0 0.91305999904870982 0 0 0 0.91239807680249219 0 0 0.9118337862193584 0.91128937602043147 0 0 0.91076447889208789 0.91025871373713019 0 0 0.90977168977260581 0.90941847935318942 0.90913471803069112 0 0.90885225124657154 0 0.90827500522136684 0.90831338800489902 0 0.90790144465863709 0 0.90755737647414203 0.90731443576514725 0.90703444331884375 0 0 0.90667472071945676 0.90650056563317771 0.90633014105260368 0 0 0.90600026771426201 0.90584070924669502 0 0.90560794156044722 0.90545706413686267 0 0.90517262760549788 0 0 0.90495523735880856 0.90481913574039941 0 0.90462084766477346 0 0.90440088026225562 0 0 0 0 0.90406655501574273 0.90395131055265665 0 0.90372909121215339 0.90359831154346471 0.90354608390480284 0 0.90329452231526375 0 0 0 0 0.90296805389225487 0.90289052315056328 0 0 0.99999678730964658 0 0 0 0.99988440871238704 0.99974971711635585 0.9995194256305695 0 0.99950965046882634 0 0.99926059544086454 0.99911719262599941 0 0.99879291057586661 0.99861215949058535 0 0 0.99821377396583566 0.997883015871048 0 0 0 0 0.99693959057331083 0 0.9965865939855576 0 0 0.9959095925092698 0 0 0 0 0 0.99482782185077667 0.9944720357656478 0 0 0 0 0.99334067404270177 0.99294267892837529 0.99243233501911166 0 0.99158706367015836 0 0 0 0 0 0.99011403620243077 0 0 0.98879970610141754 0 0.98817800283432011 0.98742077946662898 0.9874164104461669 0.98650624155998234 0 0.98583840727806094 0.98529683649539945 0.98419145643711081 0.98362802863121024 0 0.98277000486850741 0 0.9818970948457717 0.98130721747875216 0 0.98041097819805145 0 0.97935073375701909 0 0 0.97795872390270233 0.97733258605003359 0 0 0 0.97574655711650848 0.97510439753532419 0 0.97348139584064486 0.97282567620277405 0.97216653525829311 0.97150416970252995 0.9705050140619278 0 0 0.96916337013244624 0 0 0 0 0 0.96645363569259646 0.96560342907905583 0 0.9640617042779922 0 0 0.96268942058086393 0 0.96131500005722048 0 0 0.95993990004062657 0.9592525333166122 0.9585655242204667 0.95787904262542722 0 0 0 0.95532494783401489 0.95548292398452761 0 0 0 0 0 0.95276392400264731 0 0 0 0.95025527775287633 0 0 0 0.94891327619552612 0.94858206361532216 0 0.94726429879665375 0 0.94612568169832234 0.94580087661743162 0 0.94450277090072632 0.94370587170124054 0.94323343634605405 0.94212406128644943 0 0.94118670821189876 0 0 0 0.93979525566101074 0 0 0.93827792853116987 0 0.93709197193384175 0.93708437830209734 0.93591721206903455 0 0 0.93476179689168926 0 0 0.93390057086944578 0.93320086300373073 0 0 0 0.93168069273233423 0.93113881349563599 0 0 0.92994208037853243 0 0.92928454428911211 0 0.92825499176979065 0.92762570381164555 0.9273752585053443 0 0 0.92626267373561855 0 0.92553877979516974 0 0.92482765913009646 0 0 0.92356021851301184 0 0.92277923524379735 0 0 0 0.92146498560905454 0.92104098498821263 0 0 0.91980330422520629 0 0.91910795941948886 0 0.91833118274807934 0 0 0 0 0 0.91693243607878683 0.91657346040010457 0 0.91587205976247787 0.91552957743406305 0.91519253328442574 0.91478173658251771 0 0 0.91413719877600674 0 0 0.91336125284433367 0 0 0 0.91268778890371327 0 0 0.91211342401802542 0.91155911907553677 0 0 0.91102451197803025 0.91050922907888887 0 0 0.91001288369297972 0.90965281501412387 0.90936343111097817 0 0.90907541289925575 0 0.90848627761006351 0.90852570235729213 0 0.90810532011091705 0 0.90775404945015903 0.9075060561299324 0.90722011998295782 0 0 0.90685266181826596 0.90667472071945676 0.90650056563317771 0 0 0.90616339333355422 0.90600026771426201 0 0.90576225072145466 0.90560794156044722 0 0.90531681738793846 0 0 0.90509452912956478 0.90495523735880856 0 0.90475226435810319 0 0.90452698562294254 0 0 0 0 0.90418462380766873 0.90406655501574273 0 0.90383883938193321 0.90370473116636274 0.90365119185298681 0 0.90339325610548249 0 0 0 0 0.90305836796760564 0.90297855446115138 0 0 -1.0000064253807066 -0.99999678730964658 -0.99999036490917204 1.2832880020130499e-05 -0.99939026236534123 -0.99931382834911342 -0.99978818297386174 -0.99933290779590611 -0.99966322779655459 -0.99891071915626528 -0.99759715795516968 -0.99926059544086454 -0.99808810651302338 -0.99776382446289058 -0.99887864589691167 -0.99879291057586661 -0.99497973024845132 -0.99401476979255676 -0.99810655117034908 -0.99799629449844363 -0.997883015871048 -0.99776672720909121 -0.9946768164634705 -0.99752516746520992 -0.9940195649862289 -0.99700642824172969 -0.9968693941831589 -0.99273844063282013 -0.9965865939855576 -0.99629224836826324 -0.99614077806472778 -0.9959864616394043 -0.99582931697368626 -0.99068893790245061 -0.99001017212867737 -0.99500163793563845 -0.99482782185077667 -0.99465128183364859 -0.9944720357656478 -0.98784345388412476 -0.98707863390445705 -0.97762232720851894 -0.99334067404270177 -0.98444133102893827 -0.99253448843955994 -0.99232661426067348 -0.99190341532230375 -0.99168812334537504 -0.99147039651870728 -0.97059376537799835 -0.99080281257629399 -0.99057554900646205 -0.97905426621437064 -0.98987983465194707 -0.97784848213195796 -0.97635928094387059 -0.97636352181434627 -0.97458139359951024 -0.987672358751297 -0.97328032851219182 0.00026020109653474011 -0.97005426287651053 -0.968948882818222 -0.98447052240371702 -0.96726396679878235 -0.98362802863121024 -0.96554799079895015 -0.96438738703727722 -0.9821896791458129 -0.94155625104904184 -0.98130721747875216 -0.9605277299880981 -0.98010928332805636 -0.97980615794658665 -0.95778517723083501 -0.9565481901168823 -0.97826991975307465 -0.97795872390270233 -0.97764627039432528 -0.95341171920299528 0.00031091272830957584 -0.97542600631713872 -0.94892488420009613 -0.94762451946735382 -0.94631670713424687 -0.91553535759449001 -0.94301721751689915 -0.97150416970252995 -0.97117183804512019 -0.90852745473384844 -0.96983545720577236 -0.96949971914291377 -0.96916337013244624 -0.96882643997669216 -0.96848895251750944 -0.93495591580867776 0.00016661882400514916 -0.9671338886022568 -0.93018661141395564 -0.96508863568305969 -0.96474658846855166 -0.8887835294008255 -0.96371891200542459 -0.92470144033432011 -0.96234595775604248 -0.96200238466262822 -0.92195208072662349 -0.92057698071002958 -0.91920206844806673 -0.87469568252563468 -0.9585655242204667 -0.9582222074270248 -0.95787904262542722 -0.91268541216850274 -0.91302655339241023 -0.95650832951068876 -0.95582443475723267 -0.95548292398452761 -0.95514173209667208 -0.95480087697505955 -0.85899844467639919 -0.95378052890300746 -0.95310234427452079 -0.95276392400264731 -0.90250655114650735 -0.95208851695060726 -0.9517515689134598 -0.95141514837741847 -0.89982726126909252 -0.89916089624166484 -0.94940870851278303 -0.89650861322879782 -0.94874491989612575 -0.89420735836029053 -0.83806267827749248 -0.947425688803196 -0.89094974994659415 -0.83193814456462856 -0.8883768007159234 -0.8861463502049447 -0.94354387074708934 -0.88425392359495159 -0.94259331673383717 -0.94196442812681203 -0.94165146797895427 -0.81972572505474084 -0.9407186701893806 -0.94040980637073512 -0.87838076204061499 -0.93918501287698741 -0.87596869766712182 -0.87596641182899471 -0.87359097301959987 -0.9373810321092606 -0.93708437830209734 -0.87125105410814285 -0.93620148897171018 -0.93590958118438716 -0.80229967385530476 -0.86809593588113787 -0.93390057086944578 -0.93361857384443281 -0.9333378538489342 -0.86501775830984107 -0.86391818672418597 -0.93195361793041231 -0.93168069273233423 -0.86148379296064381 -0.93113881349563599 -0.78840692341327667 -0.93007110804319382 -0.85806118994951253 -0.85677701383829108 -0.85626777112483976 -0.92800106108188629 -0.92774852067232128 -0.85400959551334377 -0.9269992783665657 -0.8525363951921463 -0.92626267373561855 -0.77522016242146485 -0.92530031800270085 -0.9250632770359517 -0.77104756012558939 -0.92459346726536751 -0.76879427880048745 -0.92367097586393354 -0.92299412935972214 -0.92277137935161591 -0.84423453062772746 0 -0.92167913392186163 -0.92104098498821263 -0.84084249734878547 -0.92041571661829957 -0.75784131959080692 -0.92000601589679709 -0.75530686974525452 -0.9192037090659142 -0.91881107762455938 -0.91842410638928418 -0.91823273748159406 -0.91804277747869489 -0.83497367054224014 -0.75028706043958659 -0.91693243607878683 -0.83280310630798338 -0.83210170567035679 -0.83141127228736877 -0.83056457713246346 -0.91552957743406305 -0.91519253328442574 -0.74267530217766753 -0.91486089527606973 -0.91453462764620785 -0.82765190377831455 -0.91405522301793096 -0.91374223008751865 -0.91358770206570628 -0.82627479732036591 -0.91313193589448927 -0.91298260241746898 0.00013331808149813495 -0.82395684532821178 -0.91197298094630241 -0.9118337862193584 0.00012340061366555855 -0.82179862596094599 -0.91089389435946932 -0.91076447889208789 -0.73043572194874284 -0.82003656178712836 -0.81943585425615306 -0.90989171043038364 -0.72759597860276704 -0.90930300541222087 -0.81760911308228967 -0.81771523207426067 -0.90885225124657154 -0.72445256747305387 -0.90841901116073132 -0.81611938364803793 -0.72284004725515838 -0.81502275541424751 -0.9075060561299324 -0.90740974545478825 -0.81426419839262953 -0.81389674022793768 -0.81353701762855057 -0.90676321461796761 -0.90667472071945676 -0.81284034177660935 -0.81250316947698586 -0.90624631103128195 -0.81201106235384946 -0.81169193182140587 -0.90584070924669502 -0.81107634305953979 -0.90568466372787948 -0.90560794156044722 -0.81062959413975477 -0.81034122798591857 -0.90516538769006727 -0.80992090739309797 -0.90495523735880856 -0.80944923125207424 -0.90481913574039941 -0.90468617044389243 -0.90462084766477346 -0.90455628912895913 -0.80874464213848118 -0.71234734822064638 -0.90424473322927956 -0.80802750065922746 -0.80774423182010657 -0.71105722375214098 -0.90378362815827129 -0.71027848999947318 -0.90362201575189838 -0.90351756364107128 -0.90341568551957607 -0.90336569640785458 -0.70931246709078555 -0.80621599303558478 -0.90312500959262254 -0.90303294435143466 0 0 0.99995182156562801 0.99985553026199336 0.99967295527458189 0 0.99966322779655459 0 0.99945212304592135 0.99932758808135991 0 0.99904079735279083 0.99887864589691167 0 0 0.9985171616077424 0.99821377396583566 0 0 0 0 0.99733747839927678 0 0.99700642824172969 0 0 0.99636824429035187 0 0 0 0 0 0.99534103870391843 0.99500163793563845 0 0 0 0 0.99391822814941411 0.99353580176830292 0.99304458796978001 0 0.99222913682460789 0 0 0 0 0 0.99080281257629399 0 0 0.98952584564685819 0 0.98892051577568052 0.98818230628967285 0.98817800283432011 0.98728930652141567 0 0.98663634061813354 0.98610633015632632 0.98502323627471922 0.98447052240371702 0 0.98362802863121024 0 0.98277000486850741 0.9821896791458129 0 0.98130721747875216 0 0.98026217818260197 0 0 0.97888843715190887 0.97826991975307465 0 0 0 0.97670162022113804 0.97606602609157567 0 0.97445811629295354 0.97380790710449217 0.97315397560596462 0.97249652147293086 0.97150416970252995 0 0 0.97017056345939634 0 0 0 0 0 0.96747336983680721 0.96662611067295079 0 0.96508863568305969 0 0 0.96371891200542459 0 0.96234595775604248 0 0 0.96097123324871059 0.96028366088867179 0.95959618389606471 0.95890897214412685 0 0 0 0.95634980201721187 0.95650832951068876 0 0 0 0 0 0.95378052890300746 0 0 0 0.95126022696495061 0 0 0 0.94991090893745422 0.94957771599292751 0 0.94825154095888142 0 0.94710490256547919 0.94677770882844925 0 0.94546963572502141 0.94466610997915268 0.9441895544528961 0.94307029098272332 0 0.94212406128644943 0 0 0 0.9407186701893806 0 0 0.93918501287698741 0 0.93798538148403166 0.93797781765460964 0.93679650127887726 0 0 0.93562652319669715 0 0 0.93475413173437116 0.93404492586851118 0 0 0 0.93250340968370438 0.93195361793041231 0 0 0.93073881417512894 0 0.93007110804319382 0 0.92902508974075326 0.92838540524244306 0.92813078165054319 0 0 0.9269992783665657 0 0.92626267373561855 0 0.92553877979516974 0 0 0.92424779757857323 0 0.92345178276300421 0 0 0 0.92211173102259636 0.92167913392186163 0 0 0.92041571661829957 0 0.91970542445778847 0 0.9189116433262825 0 0 0 0 0 0.91748131886124606 0.91711400523781772 0 0.91639604642987249 0.91604534983634944 0.91570013687014584 0.91527920141816144 0 0 0.91461860239505777 0 0 0.91382288560271263 0 0 0 0.91313193589448927 0 0 0.91254229806363585 0.91197298094630241 0 0 0.91142363473773003 0.91089389435946932 0 0 0.91038338243961336 0.91001288369297972 0.90971494615077964 0 0.90941847935318942 0 0.90881123952567577 0.90885225124657154 0 0.90841901116073132 0 0.90805676020681858 0.90780106224119661 0.9075060561299324 0 0 0.90712679140269747 0.90694306902587418 0.90676321461796761 0 0 0.90641489028930655 0.90624631103128195 0 0.90600026771426201 0.90584070924669502 0 0.90553935077041392 0 0 0.9053095640614629 0.90516538769006727 0 0.90495523735880856 0 0.90472181905061011 0 0 0 0 0.904367134347558 0.90424473322927956 0 0.90400858297944064 0.90386936441063881 0.90381381120532756 0 0.90354608390480284 0 0 0 0 0.90319825354963545 0.90311492877081034 0 0 0 0.99999036490917204 0.99993255436420436 0.99979787766933437 0 0.99978818297386174 0 0.99961520731449127 0.99950965046882634 0 0.99926059544086454 0.99911719262599941 0 0 0.99879291057586661 0.9985171616077424 0 0 0 0 0.99770874381065366 0 0.99739991724491117 0 0 0.99680109918117532 0 0 0 0 0 0.99582931697368626 0.99550658762454991 0 0 0 0 0.9944720357656478 0.99410549402236947 0.99363381862640376 0 0.99284886419773111 0 0 0 0 0 0.99147039651870728 0 0 0.99023182690143585 0 0.98964335918426505 0.98892475366592403 0.98892051577568052 0.98805399835109708 0 0.9874164104461669 0.98689837753772736 0.98583840727806094 0.98529683649539945 0 0.98447052240371702 0 0.98362802863121024 0.98305769860744474 0 0.9821896791458129 0 0.98116062283515926 0 0 0.97980615794658665 0.97919571101665492 0 0 0 0.97764627039432528 0.9770176947116852 0 0.97542600631713872 0.97478176057338717 0.974133488535881 0.97348139584064486 0.97249652147293086 0 0 0.97117183804512019 0 0 0 0 0 0.96848895251750944 0.96764517128467564 0 0.96611291170120239 0 0 0.96474658846855166 0 0.9633759170770646 0 0 0.96200238466262822 0.96131500005722048 0.96062744557857505 0.95993990004062657 0 0 0 0.95737705826759334 0.95753605067729941 0 0 0 0 0 0.95480087697505955 0 0 0 0.95227016806602482 0 0 0 0.95091416835784903 0.95057915151119232 0 0.94924516826868055 0 0.94809100925922385 0.94776156842708592 0 0.94644407778978346 0.94563424885272984 0.94515376538038254 0.9440250486135483 0 0.94307029098272332 0 0 0 0.94165146797895427 0 0 0.94010199755430224 0 0.93888906985521314 0.93888153731822965 0.93768642395734791 0 0 0.93650221079587936 0 0 0.93561888188123699 0.93490035831928253 0 0 0 0.9333378538489342 0.93278026431798933 0 0 0.93154762983322148 0 0.93086987286806111 0 0.92980755716562269 0.92915756851434705 0.9288988023996354 0 0 0.92774852067232128 0 0.9269992783665657 0 0.92626267373561855 0 0 0.9249482326209546 0 0.92413721531629567 0 0 0 0.92277137935161591 0.92233017981052401 0 0 0.92104098498821263 0 0.92031570002436647 0 0.9195048481225967 0 0 0 0 0 0.91804277747869489 0.91766707077622411 0 0.91693243607878683 0.91657346040010457 0.91622001081705085 0.91578884795308113 0 0 0.91511203274130826 0 0 0.9142963379621506 0 0 0 0.91358770206570628 0 0 0.91298260241746898 0.91239807680249219 0 0 0.9118337862193584 0.91128937602043147 0 0 0.91076447889208789 0.91038338243961336 0.91007674857974052 0 0.90977168977260581 0 0.90914602279663081 0.90918865203857413 0 0.90874231569468977 0 0.90836887359619145 0.90810532011091705 0.90780106224119661 0 0 0.90740974545478825 0.90722011998295782 0.90703444331884375 0 0 0.90667472071945676 0.90650056563317771 0 0.90624631103128195 0.90608138125389814 0 0.90576954465359449 0 0 0.90553207732737062 0.90538289528340099 0 0.90516538769006727 0 0.90492362082004552 0 0 0 0 0.90455628912895913 0.90442943908274165 0 0.90418462380766873 0.90404015276581051 0.90398252885788688 0 0.90370473116636274 0 0 0 0 0.90334357805550103 0.90325663629919295 0 0 0.99999678730964658 0.99995182156562801 0.99983313679695129 0 0.99982345402240758 0 0.99966322779655459 0.99956401288509367 0 0.99932758808135991 0.99919046163558956 0 0 0.99887864589691167 0.99861215949058535 0 0 0 0 0.99782652854919429 0 0.99752516746520992 0 0 0.99693959057331083 0 0 0 0 0 0.9959864616394043 0.99566935300827031 0 0 0 0 0.99465128183364859 0.99429010152816777 0.99382502734661105 0 0.99305039048194887 0 0 0 0 0 0.99168812334537504 0 0 0.99046257436275487 0 0.98987983465194707 0.98916789293289176 0.98916367888450618 0.98830470442771912 0 0.987672358751297 0.98715840876102445 0.98610633015632632 0.985568568110466 0 0.98474779129028311 0 0.98391061723232265 0.98334371447563163 0 0.98248065710067745 0 0.98145709633827205 0 0 0.98010928332805636 0.97950162589550027 0 0 0 0.97795872390270233 0.97733258605003359 0 0.97574655711650848 0.97510439753532419 0.97445811629295354 0.97380790710449217 0.97282567620277405 0 0 0.97150416970252995 0 0 0 0 0 0.96882643997669216 0.9679839432239532 0 0.96645363569259646 0 0 0.96508863568305969 0 0.96371891200542459 0 0 0.96234595775604248 0.96165872514247897 0.96097123324871059 0.96028366088867179 0 0 0 0.95771991610527041 0.95787904262542722 0 0 0 0 0 0.95514173209667208 0 0 0 0.95260783731937404 0 0 0 0.95124975740909579 0.95091416835784903 0 0.94957771599292751 0 0.94842116683721533 0.94809100925922385 0 0.94677050560712805 0.94595865011215208 0.94547690153121944 0.94434513300657263 0 0.94338761419057837 0 0 0 0.94196442812681203 0 0 0.94040980637073512 0 0.93919253647327428 0.93918501287698741 0.93798538148403166 0 0 0.93679650127887726 0 0 0.93590958118438716 0.93518799096345906 0 0 0 0.93361857384443281 0.93305841535329814 0 0 0.93181989341974258 0 0.93113881349563599 0 0.93007110804319382 0.92941770553588865 0.92915756851434705 0 0 0.92800106108188629 0 0.92724762558937068 0 0.92650679945945735 0 0 0.92518456056714049 0 0.92436855137348173 0 0 0 0.92299412935972214 0.92255006283521657 0 0 0.92125226929783821 0 0.92052197828888893 0 0.91970542445778847 0 0 0 0 0 0.91823273748159406 0.91785422265529637 0 0.91711400523781772 0.91675225570797925 0.91639604642987249 0.91596145480871205 0 0 0.91527920141816144 0 0 0.9144568033516407 0 0 0 0.91374223008751865 0 0 0.91313193589448927 0.91254229806363585 0 0 0.91197298094630241 0.91142363473773003 0 0 0.91089389435946932 0.91050922907888887 0.91019966490566739 0 0.90989171043038364 0 0.90925983004271982 0.90930300541222087 0 0.90885225124657154 0 0.9084750328212976 0.9082088265568018 0.90790144465863709 0 0 0.9075060561299324 0.90731443576514725 0.90712679140269747 0 0 0.90676321461796761 0.90658717341721062 0 0.90633014105260368 0.90616339333355422 0 0.90584800988435743 0 0 0.90560794156044722 0.90545706413686267 0 0.90523706376552582 0 0.90499246753752227 0 0 0 0 0.90462084766477346 0.90449248850345609 0 0.90424473322927956 0.90409847944974897 0.90404015276581051 0 0.90375893544405694 0 0 0 0 0.90339325610548249 0.90330508463084702 0 0 -0.99991327524185181 -0.999778488278389 -0.99995182156562801 -0.99979770481586461 -0.99988440871238704 -0.99954111278057101 -0.99885529577732091 -0.99961520731449127 -0.9989649862051011 -0.9987222343683243 -0.99932758808135991 -0.99926059544086454 -0.99689356982707977 -0.99612199664115897 -0.99870407879352574 -0.99861215949058535 -0.9985171616077424 -0.99841909110546112 -0.99621328115463259 -0.99821377396583566 -0.99565295577049262 -0.99776672720909121 -0.99764744043350229 -0.99454366564750674 -0.99739991724491117 -0.99714053571224215 -0.99700642824172969 -0.9968693941831589 -0.99672944545745845 -0.99273631870746604 -0.99213045239448538 -0.9959864616394043 -0.99582931697368626 -0.99566935300827031 -0.99550658762454991 -0.9901775658130646 -0.98948231637477879 -0.98175697922706606 -0.9944720357656478 -0.98706440031528475 -0.99372832477092743 -0.99353580176830292 -0.99314295947551723 -0.99294267892837529 -0.99273985028266909 -0.97528277039527889 -0.99211625158786765 -0.99190341532230375 -0.9820562809705734 -0.99125025570392611 -0.98092471063137054 -0.97952188253402706 -0.97952640652656553 -0.97784205973148342 -0.98916367888450618 -0.97660887241363525 0 -0.97353793084621432 -0.97248185873031612 -0.98610633015632632 -0.97086861729621887 -0.98529683649539945 -0.96922152638435355 -0.96810528635978699 -0.98391061723232265 -0.94773764610290523 -0.98305769860744474 -0.96438096463680267 -0.9818970948457717 -0.98160293400287624 -0.96172439754009242 -0.96052347421646123 -0.98010928332805636 -0.97980615794658665 -0.97950162589550027 -0.95747148096561441 0 -0.97733258605003359 -0.95308922231197357 -0.95181579589843746 -0.95053361654281621 -0.92241235971450797 -0.94729251563549044 -0.97348139584064486 -0.97315397560596462 -0.91551929712295532 -0.97183574438095088 -0.97150416970252995 -0.97117183804512019 -0.97083877921104433 -0.9705050140619278 -0.93933838903903955 -0.00016325712203979492 -0.96916337013244624 -0.93461047112941742 -0.9671338886022568 -0.9667939692735672 -0.89596164524555211 -0.96577182114124294 -0.92915407121181492 -0.96440427005290985 -0.9640617042779922 -0.92641187608242037 -0.92503859102725983 -0.9236643224954606 -0.88189518749713891 -0.96062744557857505 -0.96028366088867179 -0.95993990004062657 -0.91713478863239284 -0.91747770905494686 -0.9585655242204667 -0.95787904262542722 -0.95753605067729941 -0.95719325542449951 -0.95685067474842067 -0.8661210834980011 -0.95582443475723267 -0.95514173209667208 -0.95480087697505955 -0.90688739120960227 -0.95412025451660154 -0.95378052890300746 -0.95344121754169464 -0.9041807562112808 -0.90350687801837926 -0.95141514837741847 -0.90082227438688278 -0.95074396133422856 -0.89848972111940384 -0.84492760747671125 -0.94940870851278303 -0.89518331289291386 -0.83869542926549911 -0.89256734699010853 -0.89029704183340075 -0.94546963572502141 -0.88836857825517646 -0.94450277090072632 -0.94386259466409683 -0.94354387074708934 -0.82622405886650085 -0.94259331673383717 -0.94227838218212123 -0.88237130045890799 -0.94102857559919362 -0.87990260869264603 -0.8799004659056664 -0.8774661540985107 -0.93918501287698741 -0.93888153731822965 -0.87506540864706039 -0.93797781765460964 -0.93767884820699687 -0.80832781493663775 -0.87182358354330058 -0.93561888188123699 -0.93532940149307242 -0.93504114896059032 -0.86865540444850919 -0.867522357404232 -0.93361857384443281 -0.9333378538489342 -0.86501133590936663 -0.93278026431798933 -0.79397250264883046 -0.93168069273233423 -0.86147535592317581 -0.86014678329229355 -0.85961968898773189 -0.92954536825418477 -0.92928454428911211 -0.85728053301572804 -0.92851030975580207 -0.85575279444456098 -0.92774852067232128 -0.78027126044034956 -0.92675233483314512 -0.92650679945945735 -0.77591948658227916 -0.92601996064186098 -0.77356618940830235 -0.9250632770359517 -0.92436070144176485 -0.92412936314940453 -0.84711811691522598 -0.00021167844533920288 -0.92299412935972214 -0.92233017981052401 -0.84357706233859053 -0.92167913392186163 -0.76209225878119469 -0.92125226929783821 -0.75942845717072482 -0.92041571661829957 -0.92000601589679709 -0.91960201710462575 -0.91940215229988098 -0.9192037090659142 -0.83743117600679395 -0.75414258539676671 -0.91804277747869489 -0.83515160232782359 -0.8344141826033592 -0.83368790447711949 -0.83279668390750883 -0.91657346040010457 -0.91622001081705085 -0.74609940275549891 -0.91587205976247787 -0.91552957743406305 -0.82972634509205823 -0.91502604037523272 -0.91469709202647209 -0.91453462764620785 -0.82827213332057004 -0.91405522301793096 -0.91389806866645817 0 -0.82582037001848219 -0.91283455491065979 -0.91268778890371327 0 -0.82353283315896986 -0.91169583424925804 -0.91155911907553677 -0.73308759145438662 -0.82166158594191074 -0.82102285437285905 -0.91063625924289227 -0.73005265817046161 -0.91001288369297972 -0.8190779078751802 -0.81919110789895044 -0.90953508019447327 -0.72668501026928434 -0.90907541289925575 -0.81748893223702912 -0.72495407350361341 -0.81631735935807226 -0.90810532011091705 -0.9080028615891933 -0.81550598293542853 -0.81511264368891712 -0.81472739391028881 -0.90731443576514725 -0.90722011998295782 -0.81398072503507135 -0.81361908912658687 -0.90676321461796761 -0.81309095174074164 -0.81274824403226376 -0.90633014105260368 -0.81208665203303099 -0.90616339333355422 -0.90608138125389814 -0.8116061726585031 -0.81129581797868011 -0.90560794156044722 -0.81084317211061707 -0.90538289528340099 -0.81033480558544402 -0.90523706376552582 -0.90509452912956478 -0.90502448119223122 -0.90495523735880856 -0.80957461278885601 -0.71361942365765574 -0.90462084766477346 -0.80879978612065306 -0.8084934044629335 -0.7122153371572495 -0.90412523318082094 -0.71136642973870046 -0.90395131055265665 -0.90383883938193321 -0.90372909121215339 -0.90367522239685061 -0.7103117933496832 -0.80683710891753435 -0.90341568551957607 -0.90331633258610966 -0.99990366101264949 -0.99999036490917204 -0.99992291331291194 -0.99995182156562801 -0.99974315166473393 0 -0.99974971711635585 -0.99928164780139928 -0.99907687604427342 -0.99950965046882634 -0.99945212304592135 0 0 -0.99896127879619601 -0.99887864589691167 -0.99879291057586661 -0.99870407879352574 -0.99683833122253418 -0.9985171616077424 -0.99632353782653804 -0.99810655117034908 -0.99799629449844363 -0.99529510736465454 -0.99776672720909121 -0.99752516746520992 -0.99739991724491117 